{"learner":{"attributes":{"scikit_learn":"{\"_estimator_type\": \"regressor\"}"},"feature_names":["1,1,2,2-Tetrachloroethane","1,1,2-Trichloroethane","1,2,4-Trichlorobenzene","1,3-Butadiene","1,3-Dichloropropene","1,4-Dichlorobenzene","1-Methylnaphthalene","1-Methylphenanthrene","1-Methylpyrene","2,2,4-Trimethylpentane","2,4,6-Trichlorophenol","2,4-Dichlorophenoxy Acetic Acid","2,4-Dinitrotoluene","2,4-Toluene Diisocyanate","2-Methylnaphthalene","2-Methylphenanthrene","4-Nitrophenol","Acenaphthene","Acenaphthylene","Acetaldehyde","Acetamide","Acetonitrile","Acetophenone","Acrolein","Acrylic Acid","Acrylonitrile","Allyl Chloride","Ammonia","Anthracene","Antimony","Arsenic","BenzaAnthracene","Benzene","Benzo(a)Fluoranthene","Benzo(c)phenanthrene","Benzo(g,h,i)Fluoranthene","BenzoaPyrene","BenzobFluoranthene","BenzoePyrene","Benzog,h,i,Perylene","BenzokFluoranthene","Benzofluoranthenes","Benzyl Chloride","Beryllium","Biphenyl","Bis(2-Ethylhexyl)Phthalate","Bromoform","Cadmium","Captan","Carbaryl","Carbon Dioxide","Carbon Disulfide","Carbon Monoxide","Carbon Tetrachloride","Carbonyl Sulfide","Catechol","Chlorine","Chlorobenzene","Chloroform","Chloroprene","Chromium (VI)","Chromium III","Chrysene","Cobalt","Cresol/Cresylic Acid (Mixed Isomers)","Cumene","Cyanide","Dibenzo(a,h)Anthracene","Dibenzofuran","Dibutyl Phthalate","Diethanolamine","Dimethyl Phthalate","Dimethyl Sulfate","Epichlorohydrin","Ethyl Acrylate","Ethyl Benzene","Ethyl Chloride","Ethylene Dibromide","Ethylene Dichloride","Ethylene Glycol","Ethylene Oxide","Ethylidene Dichloride","Fluoranthene","Fluorene","Formaldehyde","Glycol Ethers","Hexachlorobenzene","Hexane","Hydrochloric Acid","Hydrogen Cyanide","Hydrogen Fluoride","Hydroquinone","Indeno1,2,3-c,dPyrene","Isophorone","Lead","Maleic Anhydride","Manganese","Mercury","Methane","Methanol","Methyl Bromide","Methyl Chloride","Methyl Chloroform","Methyl Iodide","Methyl Isobutyl Ketone","Methyl Methacrylate","Methyl Tert-Butyl Ether","Methylanthracene","Methylbenzopyrene","Methylchrysene","Methylene Chloride","Methylhydrazine","N,N-Dimethylaniline","N,N-Dimethylformamide","Naphthalene","Nickel","Nitrobenzene","Nitrogen Oxides","Nitrous Oxide","PAH/POM - Unspecified","PM Condensible","PM10 Filterable","PM10 Primary (Filt + Cond)","PM2.5 Filterable","PM2.5 Primary (Filt + Cond)","Parathion","Pentachloronitrobenzene","Perylene","Phenanthrene","Phenol","Phenyl Cellosolve","Phosphorus","Phthalic Anhydride","Polychlorinated Biphenyls","Polycyclic aromatic compounds (includes 25 specific compounds)","Propionaldehyde","Propylene Dichloride","Propylene Oxide","Pyrene","Quinone","Selenium","Styrene","Sulfur Dioxide","Tetrachloroethylene","Toluene","Trichloroethylene","Triethylamine","Trifluralin","Vinyl Acetate","Vinyl Chloride","Vinylidene Chloride","Volatile Organic Compounds","Xylenes (Mixed Isomers)","m-Xylene","o-Cresol","o-Toluidine","o-Xylene","p-Dioxane","p-Xylene","StateDesc"],"feature_types":["float","float","float","float","float","float","float","float","float","float","float","float","float","float","float","float","float","float","float","float","float","float","float","float","float","float","float","float","float","float","float","float","float","float","float","float","float","float","float","float","float","float","float","float","float","float","float","float","float","float","float","float","float","float","float","float","float","float","float","float","float","float","float","float","float","float","float","float","float","float","float","float","float","float","float","float","float","float","float","float","float","float","float","float","float","float","float","float","float","float","float","float","float","float","float","float","float","float","float","float","float","float","float","float","float","float","float","float","float","float","float","float","float","float","float","float","float","float","float","float","float","float","float","float","float","float","float","float","float","float","float","float","float","float","float","float","float","float","float","float","float","float","float","float","float","float","float","float","float","float","float","float","float","float","float","float","float","float","float","c"],"gradient_booster":{"model":{"gbtree_model_param":{"num_parallel_tree":"1","num_trees":"100"},"iteration_indptr":[0,1,2,3,4,5,6,7,8,9,10,11,12,13,14,15,16,17,18,19,20,21,22,23,24,25,26,27,28,29,30,31,32,33,34,35,36,37,38,39,40,41,42,43,44,45,46,47,48,49,50,51,52,53,54,55,56,57,58,59,60,61,62,63,64,65,66,67,68,69,70,71,72,73,74,75,76,77,78,79,80,81,82,83,84,85,86,87,88,89,90,91,92,93,94,95,96,97,98,99,100],"tree_info":[0,0,0,0,0,0,0,0,0,0,0,0,0,0,0,0,0,0,0,0,0,0,0,0,0,0,0,0,0,0,0,0,0,0,0,0,0,0,0,0,0,0,0,0,0,0,0,0,0,0,0,0,0,0,0,0,0,0,0,0,0,0,0,0,0,0,0,0,0,0,0,0,0,0,0,0,0,0,0,0,0,0,0,0,0,0,0,0,0,0,0,0,0,0,0,0,0,0,0,0],"trees":[{"base_weights":[1.2620434E-7,2.2175723E-1,-4.5404756E-1,4.2538512E-1,1.2878844E-1,-6.345788E-1,-2.6071385E-1,4.4806424E-1,-3.574328E-1,-2.1682727E-1,1.6047905E-1,-3.9640033E-1,-7.898595E-1,-1.2261073E-1,-4.6976268E-1,5.033625E-1,3.341023E-1,-2.8843284E-2,-6.4134324E-1,1.2644854E-1,-5.2830446E-1,2.054716E-1,7.853852E-3,2.0670119E-1,-4.8101228E-1,-3.6013108E-1,-9.0422416E-1,3.6412162E-1,-1.7459305E-1,-5.27411E-1,-1.1848709E-1,6.0684174E-1,4.2740852E-1,1.286412E-1,3.8220763E-1,-1.6637096E-1,1.5027714E-2,-9.747229E-2,-2.4637088E-2,-3.9413643E-1,1.9954759E-1,-1.774236E-1,-8.2063174E-1,2.1991238E-1,-8.083647E-2,5.4228086E-2,-1.2908104E-1,3.8495654E-1,-7.374557E-2,-3.7161008E-1,-8.4105575E-1,-1.3505866E-1,-6.576175E-1,-5.342782E-1,-1.0272585E0,4.925047E-1,3.1682424E-4,-2.9936245E-1,-4.030097E-3,-8.313155E-1,-4.6895522E-1,-3.9360344E-1,1.2341808E-1,-3.664818E-2,6.1655045E-1,9.29211E-2,4.4114777E-1,-2.7884334E-1,2.4907333E-1,3.9652058E-1,-6.637106E-2,-1.6481876E-3,-1.9972278E-2,-8.553092E-2,5.0277233E-2,2.922776E-1,-1.6263437E-1,4.0819373E-2,-4.3905795E-1,-4.2996705E-1,-1.0251423E0,2.3066801E-1,-1.1909028E-1,-3.184035E-1,8.090975E-2,7.80647E-2,-3.211853E-2,-5.474002E-2,-4.2188346E-1,3.3518076E-3,4.114499E-1,-1.8539749E-1,2.1135743E-1,1.4615673E-1,-4.0718108E-1,-2.7469793E-2,-9.853579E-1,1.0426939E-1,-3.8090354E-1,-3.9340353E-1,-1.1038432E-1,-2.8519827E-1,-8.496472E-1,-1.1975067E0,-7.059267E-1,2.1362905E-1,5.6187958E-2,-1.747228E-2,1.7527723E-1,-4.847623E-2,-4.2885312E-1,-6.263709E-2,3.178294E-2,-9.972274E-2,-9.545541E-2,-5.9667397E-2,-5.0380063E-1,-4.2966742E-2,-1.6481876E-3,2.1156728E-2,2.3919685E-1,6.265397E-1,1.2527716E-1,1.7253017E-1,-4.972279E-2,1.1357467E-2,4.4570813E-1,2.5277138E-2,-4.6637107E-2,-3.1648185E-2,2.843548E-1,-3.1648185E-2,4.0450108E-1,2.1135744E-2,-3.2197587E-2,3.1135751E-2,-3.664818E-2,4.1629556E-1,6.3966406E-3,-3.9413643E-1,2.252773E-2,2.8365672E-1,-2.4254036E-1,-6.163433E-1,2.5277257E-2,-1.26371E-1,-5.8539756E-2,-1.553092E-1,-1.1307662E0,2.769728E-1,1.6649918E-1,-2.4278946E-1,1.5865678E-1,1.5362911E-1,-4.8855016E-1,-1.1966739E-1,2.0923385E-1,-2.219758E-1,8.406512E-2,-2.2409947E-1,8.435478E-2,-2.8007092E-2,-4.5530926E-2,-1.4254038E-1,-6.774698E-1,1.780243E-2,4.403326E-2,-7.472277E-2,-2.4972284E-2,3.3518076E-3,2.8351808E-2,-3.2197572E-2,3.5586348E-1,8.919692E-2,-4.326374E-1,-1.2472272E-1,1.1135737E-2,-2.1975836E-2,-1.058619E0,-1.9972289E-2,1.8367651E-1,-1.08031435E-2,-5.481489E-1,1.3351822E-2,-4.3743286E-1,1.4615679E-1,-4.228349E-1,-1.413969E-1,-5.4965353E-1,-1.3548598E0,-7.78215E-1,-9.667349E-3,-8.4812367E-1,2.5027728E-2,3.3518076E-3,2.113576E-2,3.3518076E-3,7.860327E-3,-5.9972275E-2,-1.9641657E-1,-5.617292E-1,1.4217122E-1,-1.9389609E-1,1.1135753E-1,-3.664818E-2,-2.2472275E-2,4.3173857E-2,-6.4145535E-1,-3.4230447E-1,-9.972274E-3,1.1362896E-1,3.2527722E-2,4.469077E-3,5.774702E-1,7.4090016E-1,1.44690825E-2,3.3518076E-3,4.469077E-3,2.2527719E-2,-6.648183E-3,-2.1975837E-3,3.3518076E-3,-1.6481876E-3,3.519706E-1,4.6147832E-1,8.351803E-3,-2.1975837E-3,3.276255E-1,-2.4722815E-2,4.2277545E-1,1.7003289E-1,3.3629037E-2,4.9508697E-1,3.3362906E-2,-2.2825459E-1,-6.55309E-2,-9.972286E-2,1.1135737E-2,3.2253027E-2,-2.1975836E-2,-3.26371E-2,-7.6080315E-2,-1.219759E-1,-5.5309135E-2,1.3351822E-2,3.3518076E-3,-1.747228E-2,3.3518076E-3,-2.6648188E-2,-5.497228E-2,-1.2302168E-1,4.3155888E-1,2.2311476E-1,-3.063709E-1,1.7365831E-1,7.527709E-3,-3.1632352E-1,-8.864244E-3,2.5586357E-2,-1.6481876E-3,2.0027732E-2,-1.263711E-1,-6.538433E-1,1.2527716E-1,-2.4254036E-1,2.4081938E-1,-1.1648178E-2,-4.6648193E-2,1.3351822E-2,-1.263711E-1,9.1344185E-2,-5.8864243E-2,-1.2273575E-1,3.4112198E-4,1.6187961E-1,-1.0477284E-1,6.398912E-2,-3.5530917E-2,1.362896E-2,-1.6648198E-2,-7.46371E-2,-8.864244E-3,-1.6481876E-3,5.446908E-2,1.2527716E-1,2.446909E-2,-4.972279E-2,-2.9713967E-1,-5.1307726E-1,-1.5530904E-2,-1.6481876E-3,-2.1648193E-2,1.8351818E-2,-4.247228E-2,-1.1228349E-1,2.5958782E-1,3.9196808E-2,-8.864244E-3,5.0277114E-3,-2.1975836E-2,-6.626345E-2,-4.8427427E-1,-8.864244E-2,2.2253029E-2,-5.5309135E-2,-6.9966733E-1,-1.9489492E-1,-6.020378E-1,-1.219759E-1,-1.0021132E0,-1.554111E0,-2.8539753E-1,-8.996472E-1,-1.7746973E-1,1.9362898E-1,-9.2463964E-1,-6.6370964E-2,8.886257E-2,-1.8855011E-1,-6.6311345E-2,-7.2746985E-2,-1.1288433E0,-4.4585097E-1,1.9596009E-1,-2.8539753E-1,1.5362902E-1,-2.5564525E-1,1.8351818E-2,-1.6481876E-3,1.1135737E-2,-6.3710213E-3,-4.8673913E-1,-8.076452E-1,-6.293012E-1,-2.7265507E-1,5.0277114E-3,1.8351818E-2,3.3518076E-3,5.8267874E-1,7.710655E-1,3.93629E-2,3.8307202E-1,1.1362896E-1,4.986296E-1,3.9544553E-1,7.802407E-3,3.4868446E-1,-1.1648178E-2,4.469077E-3,1.8181E-1,4.385044E-1,1.1514325E-1,2.780242E-2,1.4469083E-1,-8.864244E-3,5.9264887E-2,2.4317395E-2,-4.0637094E-1,1.44690825E-2,3.3518076E-3,-1.5530921E-2,3.3518076E-3,-6.648183E-3,-1.6481876E-3,-1.6648198E-2,-6.648183E-3,-1.6481876E-3,6.41011E-1,3.0084735E-1,-6.075692E-2,2.4545309E-1,-5.6648184E-2,-9.972274E-2,1.0359245E-1,2.1993281E-1,-2.1975836E-2,-3.6355016E-1,-1.9972289E-2,8.351803E-3,-1.6648198E-2,-6.996832E-2,3.3518076E-3,1.44690825E-2,-2.8637106E-2,-8.864244E-3,1.13628864E-1,2.803327E-1,1.1357467E-2,-2.2197597E-2,-1.0958132E-3,1.09675504E-1,-3.9057948E-2,-3.8864248E-2,9.3628885E-3,-5.1523313E-2,5.586346E-2,2.2115678E-2,6.0332634E-2,-1.957306E-1,-3.9667368E-2,1.3880263E-1,4.469077E-3,-2.1975837E-3,3.3518076E-3,1.44690825E-2,-6.648183E-3,-2.1975837E-3,-3.2156998E-1,1.1135753E-1,-8.941364E-2,-4.6396437E-1,7.802407E-3,3.0031687E-2,-6.648183E-3,7.3628905E-3,-6.648183E-3,3.3518076E-3,-3.2884337E-2,-6.1080314E-2,-1.1648178E-2,-1.6481876E-3,-1.6481876E-3,-6.648183E-3,-8.853975E-1,-1.9972278E-2,5.0277233E-2,-2.6633072E-1,-2.8637105E-1,-6.996673E-2,-1.6481876E-3,-1.6648198E-2,-2.8864255E-2,-1.0476452E0,-1.6141698E0,-2.5530925E-2,4.469077E-2,-4.26371E-1,-2.9413638E-1,-1.0604365E0,-7.472277E-2,-2.553091E-2,2.2527719E-2,3.3518076E-3,-1.07061E0,-3.7966743E-1,1.1357467E-2,-1.2197575E-2,2.0659646E-1,-5.2037783E-2,7.527721E-2,-2.8485668E-1,-3.4041226E-1,7.4423075E-2,-1.3441364E-1,-3.2197572E-2,-1.5590355E-1,-5.904478E-1,2.831867E-1,4.9558274E-2,-5.26371E-1,2.1135743E-1,2.0027721E-2,-1.6481876E-3,-3.1131563E-1,-2.7469793E-2,3.3518076E-3,-2.4722815E-3,-5.317865E-1,-4.972279E-2,-2.4972284E-2,-8.723745E-1,-2.7472293E-2,-7.6080315E-2,-1.2188339E-1,-3.2222295E-1,5.869637E-2,8.351803E-3,4.3919694E-2,8.1464216E-2,3.003466E-2,4.614499E-2,-1.6481876E-3,1.5027714E-2,3.4796234E-2,5.1803578E-2,8.351803E-3,3.9925236E-2,3.3518076E-3,3.6350805E-2,3.73629E-2,-4.6370984E-3,4.4532035E-2,4.4690925E-3,1.5362891E-2,5.362892E-3,1.8351818E-2,3.3518076E-3,-4.497228E-2,-1.1648178E-2,1.1135737E-2,6.653174E-2,3.4690354E-2,1.3956353E-2,-4.0707897E-2,1.37846535E-2,2.6756812E-2,1.1992677E-2,-1.2197575E-2,-1.6481876E-3,1.339847E-2,-3.5384323E-2,2.4222791E-2,-9.196656E-3,-6.648183E-3,3.3518076E-3,3.3518076E-3,-4.0269434E-2,3.3518076E-3,1.2527704E-2,2.9292122E-2,8.351803E-3,-1.6481876E-3,3.3518076E-3,-6.119732E-3,7.003286E-3,1.1504504E-2,-1.219759E-2,7.527709E-3,-9.134322E-3,5.863508E-4,-1.2472272E-2,-2.1975837E-3,1.0027707E-2,-7.4722767E-3,1.2888821E-2,-3.6080323E-2,-9.688342E-3,-5.152331E-3,3.3518076E-3,2.5362903E-2,5.958769E-3,-5.4413646E-2,-2.7135883E-2,-1.6481876E-3,1.8351818E-2,-3.4408607E-2,-6.0364522E-2,-1.066371E-1,-2.8864255E-2,-6.648183E-3,1.1135753E-2,-3.0707896E-2,-5.530914E-3,-3.247229E-2,-6.648183E-3,-1.0690903E-1,-2.6648188E-2,-2.1648193E-2,-1.6452542E-1,8.351803E-3,-1.6481876E-3,-4.7472287E-2,-1.1648178E-2,-1.4637089E-2,-5.164819E-2,-5.247227E-2,-1.1377521E-1,-8.864244E-3,-1.6481876E-3,-1.2197575E-2,-1.13182716E-1,3.3518076E-3,-4.2930115E-2,-1.6481876E-3,3.3518076E-3,9.292105E-3,3.0865675E-2,-2.8637106E-2,7.0332624E-3,-1.6481876E-3,1.1135753E-2,-6.648183E-3,-3.0384332E-2,-5.608032E-2,7.527721E-3,2.2033257E-2,-9.596783E-3,-3.2966744E-2,1.146025E-2,1.8351818E-2,-6.2464364E-2,1.1144992E-2,3.6398917E-2,2.0865668E-2,-4.489497E-3,-5.9972286E-2,-1.1648178E-2,3.3518076E-3,2.8351808E-2,-1.4966741E-2,-4.2996716E-2,-9.972274E-3,7.802407E-3,-6.648183E-3,-5.465577E-2,-6.648183E-3,-2.1975837E-3,-9.1631554E-2,-2.8864255E-2,-6.371021E-4,-1.788432E-2,-3.8631555E-2,-1.8855004E-2],"categories":[0,1,2,4,6,7,9,10,17,19,23,28,29,32,36,39,0,1,2,3,4,5,6,7,9,10,11,12,13,14,15,17,19,20,22,23,24,25,26,28,29,30,32,33,34,36,37,39,42,45,46,0,1,7,10,17,19,23,29,36,39,10,17,23,29,32,36,0,1,2,4,6,7,8,9,10,14,16,17,18,19,21,23,25,26,27,28,29,31,32,35,36,37,38,39,40,41,43,44,0,1,2,3,4,5,6,7,9,10,11,12,13,14,15,16,17,18,19,20,21,22,23,24,25,26,27,28,29,30,31,32,33,34,36,37,38,39,42,45,46,0,10,23,36,0,1,2,3,4,6,7,8,9,10,11,14,16,17,18,19,21,22,23,24,25,26,27,28,29,30,31,32,35,36,37,38,39,40,41,43,44,45,46,39,2,9,23,39,0,1,2,3,4,6,7,8,9,10,11,12,13,14,15,16,17,18,19,20,21,22,23,24,25,26,27,28,29,30,31,32,33,34,35,36,37,38,39,40,41,43,44,45,46],"categories_nodes":[0,1,5,6,10,15,53,81,112,174,189,251],"categories_segments":[0,16,51,61,67,99,140,144,183,184,186,188],"categories_sizes":[16,35,10,6,32,41,4,39,1,2,2,45],"default_left":[1,1,1,0,1,1,1,0,1,1,1,0,0,0,0,1,1,1,1,0,0,0,0,0,0,0,0,0,1,0,1,0,0,1,0,0,0,0,0,0,1,0,0,1,0,1,0,0,1,0,0,0,0,1,1,0,0,0,0,0,0,0,0,0,1,0,0,0,0,0,0,0,0,0,0,0,0,0,1,0,0,1,0,0,0,0,0,0,0,0,0,0,0,0,0,0,0,1,0,0,0,0,1,0,0,0,0,0,0,0,1,0,1,1,0,0,0,0,0,0,0,1,0,0,0,0,0,0,0,0,0,0,1,0,0,0,0,0,0,0,0,1,0,0,0,0,0,0,0,1,0,0,1,0,0,0,0,0,0,0,0,0,0,0,0,0,0,0,0,0,0,0,0,0,1,0,0,0,0,0,0,0,0,0,1,0,0,0,0,1,0,0,0,0,0,0,0,0,0,1,0,1,0,0,0,0,0,1,0,0,0,0,0,0,1,0,0,0,0,0,0,0,0,1,0,0,0,0,0,0,1,0,1,0,0,0,0,0,0,0,0,0,0,0,0,0,0,0,0,0,0,1,0,0,0,0,0,0,0,0,0,0,0,0,1,0,0,0,0,0,0,0,1,0,0,0,0,0,0,0,0,0,0,0,0,0,0,1,0,0,0,0,0,0,0,0,0,0,0,0,0,0,0,0,0,0,0,0,0,0,1,0,0,0,0,1,0,1,0,0,0,0,0,0,0,1,0,0,0,0,0,1,0,0,0,0,0,0,1,1,0,0,0,0,0,0,0,0,0,0,1,0,0,0,0,0,0,0,0,0,0,0,0,0,0,0,0,0,1,0,0,0,0,0,1,0,0,0,0,0,0,0,0,0,0,0,1,0,0,0,0,0,0,0,0,0,0,0,0,0,0,0,0,0,0,0,0,0,0,0,0,0,0,0,0,0,0,0,0,0,0,0,0,0,0,0,0,0,0,0,0,0,1,0,0,0,1,0,0,0,0,0,0,0,0,0,0,0,0,0,0,0,0,0,0,0,0,0,0,1,0,0,0,0,0,0,0,0,0,0,1,0,0,0,0,0,0,0,0,0,0,0,0,0,0,0,0,0,0,0,0,0,0,0,0,0,0,0,0,0,0,0,0,0,0,0,0,0,0,0,0,0,0,0,0,0,0,0,0,0,0,0,0,0,0,0,0,0,0,0,0,0,0,0,0,0,0,0,0,0,0,0,0,0,0,0,0,0,0,0,0,0,0,0,0,0,0,0,0,0,0,0,0,0,0,0,0,0,0,0,0,0,0,0,0,0,0,0,0,0,0,0,0,0,0,0,0,0,0,0,0,0,0,0,0,0,0,0,0,0,0,0,0,0,0,0,0,0,0,0,0,0,0],"id":0,"left_children":[1,3,5,7,9,11,13,15,17,19,21,23,25,27,29,31,33,35,37,39,41,43,45,47,49,51,53,55,57,59,61,63,65,67,69,71,-1,-1,-1,73,75,77,79,81,83,85,87,89,91,93,95,97,99,101,103,105,107,109,111,113,115,117,119,-1,121,123,125,127,129,131,133,-1,-1,-1,135,137,139,141,143,145,147,149,151,153,155,157,159,161,163,-1,165,167,169,171,173,175,177,179,181,183,-1,185,187,189,191,193,-1,-1,195,197,199,-1,201,203,-1,205,207,-1,-1,209,211,213,215,217,219,221,223,225,-1,-1,227,-1,229,-1,-1,-1,-1,231,233,235,-1,237,239,241,243,245,-1,247,249,251,253,255,257,259,261,263,265,267,269,271,273,275,-1,277,279,-1,-1,281,-1,-1,-1,-1,283,285,287,289,-1,291,293,-1,295,297,299,-1,301,303,305,-1,307,309,311,313,315,-1,-1,-1,-1,317,-1,319,321,323,325,327,-1,-1,329,331,333,-1,335,-1,-1,337,339,-1,-1,-1,-1,-1,-1,-1,-1,341,343,-1,-1,345,347,349,351,353,355,-1,357,-1,359,-1,-1,361,-1,-1,363,365,-1,-1,-1,-1,-1,-1,-1,367,369,371,373,-1,375,-1,-1,-1,-1,377,379,381,383,385,-1,-1,-1,387,389,-1,391,393,395,397,399,-1,401,-1,-1,-1,-1,-1,403,-1,405,407,409,-1,-1,-1,-1,-1,-1,411,413,-1,-1,415,-1,417,419,-1,421,423,425,427,429,431,433,435,437,439,441,443,445,447,449,451,-1,453,455,457,459,461,463,-1,-1,-1,465,467,469,471,473,-1,-1,-1,475,477,-1,479,481,483,485,-1,487,-1,-1,489,491,493,-1,495,-1,-1,-1,497,-1,-1,-1,-1,-1,-1,-1,-1,-1,499,501,503,505,-1,507,509,511,513,515,-1,-1,-1,-1,-1,-1,-1,-1,517,519,521,-1,523,525,527,-1,-1,529,531,-1,533,535,537,539,-1,-1,-1,-1,-1,-1,541,543,-1,545,-1,-1,-1,-1,-1,-1,-1,-1,-1,-1,-1,-1,547,-1,549,551,553,-1,-1,-1,-1,555,557,-1,559,561,563,565,567,-1,-1,-1,569,571,573,-1,575,577,579,581,583,585,-1,-1,587,589,591,593,595,597,-1,-1,599,601,-1,-1,603,605,-1,607,-1,-1,609,611,-1,-1,-1,-1,-1,-1,-1,-1,-1,-1,-1,-1,-1,-1,-1,-1,-1,-1,-1,-1,-1,-1,-1,-1,-1,-1,-1,-1,-1,-1,-1,-1,-1,-1,-1,-1,-1,-1,-1,-1,-1,-1,-1,-1,-1,-1,-1,-1,-1,-1,-1,-1,-1,-1,-1,-1,-1,-1,-1,-1,-1,-1,-1,-1,-1,-1,-1,-1,-1,-1,-1,-1,-1,-1,-1,-1,-1,-1,-1,-1,-1,-1,-1,-1,-1,-1,-1,-1,-1,-1,-1,-1,-1,-1,-1,-1,-1,-1,-1,-1,-1,-1,-1,-1,-1,-1,-1,-1,-1,-1,-1,-1,-1,-1,-1,-1,-1,-1,-1,-1,-1,-1,-1,-1,-1,-1,-1,-1,-1,-1,-1,-1,-1,-1,-1,-1,-1,-1],"loss_changes":[2.4547806E2,3.0954262E1,2.7756775E1,9.267761E0,1.2367617E1,1.4961502E1,1.1144077E1,2.976471E0,1.3808514E0,1.0224449E1,7.085129E0,8.519306E0,1.1911667E1,6.00942E0,3.0560799E0,2.3657532E0,1.5915394E0,2.2207388E-1,8.132627E-1,1.8291453E0,4.9830036E0,3.3129807E0,1.505659E0,1.0782027E0,5.398937E0,3.5268059E0,8.372314E0,1.0740905E0,4.5316544E0,1.9551277E0,1.5792755E0,1.5394745E0,8.59745E-1,1.688902E0,8.8666344E-1,2.1703556E-2,0E0,0E0,0E0,1.2727113E0,1.424525E0,1.3883188E0,1.7163887E0,2.7949333E0,1.5243592E0,3.6681068E-1,1.2829399E0,1.0724926E-1,3.2567585E-1,2.140687E0,3.847208E0,1.9225192E0,2.277423E0,3.7638378E0,7.141739E0,2.0886469E-1,2.4499995E-1,3.9751644E0,2.048108E0,1.7080173E0,1.5815239E0,1.4252388E-1,1.488554E-1,0E0,5.987358E-1,1.1078042E-1,3.6341476E-1,4.680367E-1,6.087874E-1,8.677311E-1,4.229957E-1,0E0,0E0,0E0,5.49337E-1,1.1673315E0,8.970111E-1,1.0321426E0,9.2109776E-1,4.450915E-1,1.3862591E0,2.1407776E0,8.6309016E-1,1.3600917E0,6.427716E-1,2.689116E-1,8.909694E-1,5.119591E-1,7.601886E-1,0E0,2.5134087E-3,3.1174347E-2,2.8996006E-2,8.9994365E-1,1.3780003E0,9.489688E-2,1.9529324E0,4.4705003E-1,9.844394E-1,4.2960548E-1,0E0,1.8429077E0,2.9472523E0,5.1474457E0,5.2391167E0,2.46149E-2,0E0,0E0,1.3374582E-2,1.3400933E0,2.3913717E0,0E0,2.1949382E0,2.6604077E-1,0E0,1.7944714E-1,2.0924206E0,0E0,0E0,1.0075534E-1,8.592203E-2,3.2971573E-1,2.275765E-3,3.0391052E-2,3.9905496E-4,2.4032511E-3,1.12529755E-1,1.28436E-2,0E0,0E0,3.4245014E-1,0E0,4.808483E-1,0E0,0E0,0E0,0E0,6.768193E-1,9.207927E-1,3.9600724E-1,0E0,1.7666996E-2,1.2225819E-1,4.785304E-1,4.227577E-2,4.4510983E-2,0E0,7.190926E-2,1.9049835E-1,3.4504662E0,1.1060429E0,4.2142034E-1,2.1499369E-1,4.2977825E-2,6.3576174E-1,3.313554E-1,1.8236965E-1,3.230452E-1,2.213971E-1,4.82024E-1,1.6277342E-1,3.3862576E-1,0E0,2.3743825E-1,8.698869E-2,0E0,0E0,1.7817803E-3,0E0,0E0,0E0,0E0,1.930086E-1,1.4177379E-1,9.4838715E-1,1.0682974E-2,0E0,1.5963787E-1,5.814667E-1,0E0,1.4337194E-1,3.298335E-2,6.4806986E-1,0E0,2.0214057E-1,1.354012E-1,1.3149657E0,0E0,2.8502274E-1,3.1517181E0,1.4188709E0,3.7549937E-1,2.5705624E0,0E0,0E0,0E0,0E0,6.531425E-1,0E0,2.0936375E0,2.8482304E0,1.4128346E0,6.615968E-1,3.0699644E-2,0E0,0E0,2.435647E-2,1.0210629E0,8.2787514E-1,0E0,1.291129E-2,0E0,0E0,2.609558E-1,8.408165E-2,0E0,0E0,0E0,0E0,0E0,0E0,0E0,0E0,1.8626714E-1,1.8552017E-1,0E0,0E0,8.843374E-2,3.0682936E-2,3.7130356E-1,3.3191025E-2,8.0724195E-2,3.228488E-1,0E0,5.2379185E-1,0E0,3.4831174E-2,0E0,0E0,9.637778E-3,0E0,0E0,1.1341438E-2,2.0566955E-4,0E0,0E0,0E0,0E0,0E0,0E0,0E0,2.7913342E0,2.0314217E0,2.1226615E-1,9.725914E-1,0E0,1.8662524E-1,0E0,0E0,0E0,0E0,9.365918E-2,6.2240124E-2,2.275765E-3,2.1833539E-2,3.850615E-2,0E0,0E0,0E0,6.835869E-2,2.2549486E-1,0E0,2.7407682E-1,6.7722194E-2,6.934178E-2,4.0226722E-1,1.7611387E-1,0E0,6.5118633E-3,0E0,0E0,0E0,0E0,0E0,2.275765E-3,0E0,3.9905496E-4,4.349978E-1,7.4547577E-1,0E0,0E0,0E0,0E0,0E0,0E0,4.312235E-2,2.6727404E-2,0E0,0E0,9.637778E-3,0E0,5.4805517E-2,4.10687E-3,0E0,2.0566955E-4,7.517142E-1,2.5858724E-1,2.310934E-1,1.1341438E-2,5.747185E-1,2.7860718E0,3.4479076E-1,1.829998E0,2.8909162E-2,1.7785236E-2,2.7755165E0,2.2995694E-2,4.9182454E-1,3.2634285E-1,1.0282956E0,0E0,9.569254E-1,1.7526684E0,6.6278267E-1,9.491859E-1,4.297778E-2,3.090135E-1,0E0,0E0,0E0,4.4888435E-3,5.83838E-1,6.8499565E-1,2.1063995E-1,2.74611E-1,0E0,0E0,0E0,1.6059113E-1,1.1944771E-1,0E0,3.6468983E-2,2.6318476E-2,1.00437164E-1,3.9090157E-2,0E0,8.125377E-2,0E0,0E0,4.1125062E-1,2.7804184E-1,1.30678415E-2,0E0,6.7984536E-3,0E0,0E0,0E0,1.0451674E-2,0E0,0E0,0E0,0E0,0E0,0E0,0E0,0E0,0E0,4.537449E-1,4.6412468E-1,1.7068524E0,7.868366E-1,0E0,5.3990446E-3,1.7713192E0,1.3017817E0,9.637778E-3,2.000128E-1,0E0,0E0,0E0,0E0,0E0,0E0,0E0,0E0,4.6667457E-4,3.119111E-4,2.4032511E-3,0E0,1.0260945E-1,1.5210104E-1,7.263448E-2,0E0,0E0,3.8537443E-2,2.2946412E-2,0E0,1.02218874E-1,2.4243248E-1,1.040379E-2,1.0313439E-1,0E0,0E0,0E0,0E0,0E0,0E0,2.770064E-1,3.0699644E-2,0E0,7.467432E-1,0E0,0E0,0E0,0E0,0E0,0E0,0E0,0E0,0E0,0E0,0E0,0E0,4.4817734E-1,0E0,3.5929963E-2,7.760215E-2,2.057761E-2,0E0,0E0,0E0,0E0,1.3390923E-1,1.338234E0,0E0,8.502033E-3,1.9622028E-2,1.2153202E-1,1.07120514E-1,1.7817803E-3,0E0,0E0,0E0,1.6621971E0,2.1946871E-1,2.4032511E-3,0E0,1.569472E-1,4.2159763E-1,1.5078168E-2,1.7115772E-2,8.667433E-1,4.686545E-1,0E0,0E0,7.898475E-1,8.821602E-1,4.173665E-1,3.249422E-1,8.047378E-2,2.8996006E-2,0E0,0E0,3.1924403E-1,5.3514227E-2,0E0,0E0,1.5611076E-1,3.9905496E-4,0E0,2.998066E-1,0E0,0E0,7.781534E-2,1.9275069E-1,0E0,0E0,0E0,0E0,0E0,0E0,0E0,0E0,0E0,0E0,0E0,0E0,0E0,0E0,0E0,0E0,0E0,0E0,0E0,0E0,0E0,0E0,0E0,0E0,0E0,0E0,0E0,0E0,0E0,0E0,0E0,0E0,0E0,0E0,0E0,0E0,0E0,0E0,0E0,0E0,0E0,0E0,0E0,0E0,0E0,0E0,0E0,0E0,0E0,0E0,0E0,0E0,0E0,0E0,0E0,0E0,0E0,0E0,0E0,0E0,0E0,0E0,0E0,0E0,0E0,0E0,0E0,0E0,0E0,0E0,0E0,0E0,0E0,0E0,0E0,0E0,0E0,0E0,0E0,0E0,0E0,0E0,0E0,0E0,0E0,0E0,0E0,0E0,0E0,0E0,0E0,0E0,0E0,0E0,0E0,0E0,0E0,0E0,0E0,0E0,0E0,0E0,0E0,0E0,0E0,0E0,0E0,0E0,0E0,0E0,0E0,0E0,0E0,0E0,0E0,0E0,0E0,0E0,0E0,0E0,0E0,0E0,0E0,0E0,0E0,0E0,0E0,0E0,0E0,0E0,0E0,0E0,0E0,0E0,0E0,0E0,0E0,0E0],"parents":[2147483647,0,0,1,1,2,2,3,3,4,4,5,5,6,6,7,7,8,8,9,9,10,10,11,11,12,12,13,13,14,14,15,15,16,16,17,17,18,18,19,19,20,20,21,21,22,22,23,23,24,24,25,25,26,26,27,27,28,28,29,29,30,30,31,31,32,32,33,33,34,34,35,35,39,39,40,40,41,41,42,42,43,43,44,44,45,45,46,46,47,47,48,48,49,49,50,50,51,51,52,52,53,53,54,54,55,55,56,56,57,57,58,58,59,59,60,60,61,61,62,62,64,64,65,65,66,66,67,67,68,68,69,69,70,70,74,74,75,75,76,76,77,77,78,78,79,79,80,80,81,81,82,82,83,83,84,84,85,85,86,86,87,87,88,88,90,90,91,91,92,92,93,93,94,94,95,95,96,96,97,97,98,98,99,99,101,101,102,102,103,103,104,104,105,105,108,108,109,109,110,110,112,112,113,113,115,115,116,116,119,119,120,120,121,121,122,122,123,123,124,124,125,125,126,126,127,127,130,130,132,132,137,137,138,138,139,139,141,141,142,142,143,143,144,144,145,145,147,147,148,148,149,149,150,150,151,151,152,152,153,153,154,154,155,155,156,156,157,157,158,158,159,159,160,160,161,161,163,163,164,164,167,167,172,172,173,173,174,174,175,175,177,177,178,178,180,180,181,181,182,182,184,184,185,185,186,186,188,188,189,189,190,190,191,191,192,192,197,197,199,199,200,200,201,201,202,202,203,203,206,206,207,207,208,208,210,210,213,213,214,214,223,223,224,224,227,227,228,228,229,229,230,230,231,231,232,232,234,234,236,236,239,239,242,242,243,243,251,251,252,252,253,253,254,254,256,256,261,261,262,262,263,263,264,264,265,265,269,269,270,270,272,272,273,273,274,274,275,275,276,276,278,278,284,284,286,286,287,287,288,288,295,295,296,296,299,299,301,301,302,302,304,304,305,305,306,306,307,307,308,308,309,309,310,310,311,311,312,312,313,313,314,314,315,315,316,316,317,317,318,318,319,319,321,321,322,322,323,323,324,324,325,325,326,326,330,330,331,331,332,332,333,333,334,334,338,338,339,339,341,341,342,342,343,343,344,344,346,346,349,349,350,350,351,351,353,353,357,357,367,367,368,368,369,369,370,370,372,372,373,373,374,374,375,375,376,376,385,385,386,386,387,387,389,389,390,390,391,391,394,394,395,395,397,397,398,398,399,399,400,400,407,407,408,408,410,410,423,423,425,425,426,426,427,427,432,432,433,433,435,435,436,436,437,437,438,438,439,439,443,443,444,444,445,445,447,447,448,448,449,449,450,450,451,451,452,452,455,455,456,456,457,457,458,458,459,459,460,460,463,463,464,464,467,467,468,468,470,470,473,473,474,474],"right_children":[2,4,6,8,10,12,14,16,18,20,22,24,26,28,30,32,34,36,38,40,42,44,46,48,50,52,54,56,58,60,62,64,66,68,70,72,-1,-1,-1,74,76,78,80,82,84,86,88,90,92,94,96,98,100,102,104,106,108,110,112,114,116,118,120,-1,122,124,126,128,130,132,134,-1,-1,-1,136,138,140,142,144,146,148,150,152,154,156,158,160,162,164,-1,166,168,170,172,174,176,178,180,182,184,-1,186,188,190,192,194,-1,-1,196,198,200,-1,202,204,-1,206,208,-1,-1,210,212,214,216,218,220,222,224,226,-1,-1,228,-1,230,-1,-1,-1,-1,232,234,236,-1,238,240,242,244,246,-1,248,250,252,254,256,258,260,262,264,266,268,270,272,274,276,-1,278,280,-1,-1,282,-1,-1,-1,-1,284,286,288,290,-1,292,294,-1,296,298,300,-1,302,304,306,-1,308,310,312,314,316,-1,-1,-1,-1,318,-1,320,322,324,326,328,-1,-1,330,332,334,-1,336,-1,-1,338,340,-1,-1,-1,-1,-1,-1,-1,-1,342,344,-1,-1,346,348,350,352,354,356,-1,358,-1,360,-1,-1,362,-1,-1,364,366,-1,-1,-1,-1,-1,-1,-1,368,370,372,374,-1,376,-1,-1,-1,-1,378,380,382,384,386,-1,-1,-1,388,390,-1,392,394,396,398,400,-1,402,-1,-1,-1,-1,-1,404,-1,406,408,410,-1,-1,-1,-1,-1,-1,412,414,-1,-1,416,-1,418,420,-1,422,424,426,428,430,432,434,436,438,440,442,444,446,448,450,452,-1,454,456,458,460,462,464,-1,-1,-1,466,468,470,472,474,-1,-1,-1,476,478,-1,480,482,484,486,-1,488,-1,-1,490,492,494,-1,496,-1,-1,-1,498,-1,-1,-1,-1,-1,-1,-1,-1,-1,500,502,504,506,-1,508,510,512,514,516,-1,-1,-1,-1,-1,-1,-1,-1,518,520,522,-1,524,526,528,-1,-1,530,532,-1,534,536,538,540,-1,-1,-1,-1,-1,-1,542,544,-1,546,-1,-1,-1,-1,-1,-1,-1,-1,-1,-1,-1,-1,548,-1,550,552,554,-1,-1,-1,-1,556,558,-1,560,562,564,566,568,-1,-1,-1,570,572,574,-1,576,578,580,582,584,586,-1,-1,588,590,592,594,596,598,-1,-1,600,602,-1,-1,604,606,-1,608,-1,-1,610,612,-1,-1,-1,-1,-1,-1,-1,-1,-1,-1,-1,-1,-1,-1,-1,-1,-1,-1,-1,-1,-1,-1,-1,-1,-1,-1,-1,-1,-1,-1,-1,-1,-1,-1,-1,-1,-1,-1,-1,-1,-1,-1,-1,-1,-1,-1,-1,-1,-1,-1,-1,-1,-1,-1,-1,-1,-1,-1,-1,-1,-1,-1,-1,-1,-1,-1,-1,-1,-1,-1,-1,-1,-1,-1,-1,-1,-1,-1,-1,-1,-1,-1,-1,-1,-1,-1,-1,-1,-1,-1,-1,-1,-1,-1,-1,-1,-1,-1,-1,-1,-1,-1,-1,-1,-1,-1,-1,-1,-1,-1,-1,-1,-1,-1,-1,-1,-1,-1,-1,-1,-1,-1,-1,-1,-1,-1,-1,-1,-1,-1,-1,-1,-1,-1,-1,-1,-1,-1],"split_conditions":[NaN,NaN,2.8353E-2,1.2535569E1,3.7584E-2,NaN,NaN,1.06763E0,1.064E-2,2.093E-3,NaN,4.30338E-1,3.679E-3,1.061E-2,6.0606E-2,NaN,1.749E-3,7.52E-4,1.023E-2,2.213E-3,4.24083E-1,6.9478E-2,1.294103E2,1.25566E0,2.748326E0,7.325028E2,7.4498456E2,1.535E-3,1.094602E0,5.292E-3,5.86E-3,2.56E-4,7.15E-4,1.50946E-1,3.2753685E1,2.029E-3,1.5027714E-2,-9.747229E-2,-2.4637088E-2,9.38E-4,3.72739E-1,1.37872E1,4.7E-3,3.28E-4,1.2143647E2,3.765E-3,1.02802E-1,2.72E-4,3.392E-3,3.8926E-2,5.36E-4,5.12306E-1,1.0311E-2,NaN,6.63E-4,2.594231E0,7.621E-2,1.1794751E3,9.2979E-2,3.08E-4,5.183244E2,7.28E-4,1.50247E0,-3.664818E-2,5.09E-4,6.273E-3,2.9E-4,1.678E-3,2.93E-4,5.95E-4,5.756E-2,-1.6481876E-3,-1.9972278E-2,-8.553092E-2,6.939E-3,2.754461E0,5.48542E-1,1.7029E-2,2.977E-3,1.4557E-2,1.159E-2,NaN,5.737E-3,4.685E-3,4.81E-4,3.1054543E1,1.1084131E1,1.7549E-2,6.1E-3,3.3518076E-3,5.62E-4,4.3141E-2,3.28496E-1,5.65088E-1,1.918E-2,1.056E-3,1.74E-3,1.069E-3,1.3627E-2,7.00845E1,-1.1038432E-1,1.491E-3,2.57E-4,1.53102E-1,1.2716912E2,2.101658E0,5.6187958E-2,-1.747228E-2,6.15134E-1,1.5592676E3,6.8321E-2,-6.263709E-2,NaN,3.33E-4,-9.545541E-2,2.9513E-2,2.436624E0,-4.2966742E-2,-1.6481876E-3,6.8222E-2,4.83E-4,7.23E-4,9.58E-4,4.9384E-2,3.54E-4,2.452E-3,1.07075E-1,2.84E-4,-4.6637107E-2,-3.1648185E-2,1.22659E-1,-3.1648185E-2,8.28E-4,2.1135744E-2,-3.2197587E-2,3.1135751E-2,-3.664818E-2,1.056E-3,2.742E-2,3.3403574E3,2.252773E-2,4.08E-4,5.6397E-2,2.2371E-2,3.927557E0,2.86E-4,-5.8539756E-2,6.100085E0,6.649E-3,5.8548E-2,2.61E-4,3.32E-4,3.91E-4,4.32E-4,1.8564E-2,2.5080637E3,5.492802E1,3.89342E-1,2.7E-4,4.351E-3,2.1988E-2,8.6542E-1,-4.5530926E-2,3.58E-4,5.97979E-1,1.780243E-2,4.403326E-2,9.2124E-2,-2.4972284E-2,3.3518076E-3,2.8351808E-2,-3.2197572E-2,9.69402E-1,1.710798E0,NaN,7.52E-4,1.1135737E-2,4.21E-4,1.1444E-2,-1.9972289E-2,1.368E-3,2.19E-2,4.4946523E4,1.3351822E-2,4.177E-3,4.22827E-1,5.79E-4,-1.413969E-1,2.3322005E5,NaN,4.4508E-2,7.6070625E1,1.53102E-1,2.5027728E-2,3.3518076E-3,2.113576E-2,3.3518076E-3,5.60001E-1,-5.9972275E-2,3.6E-4,1.104E-3,3.7E-4,1.629E-3,2.7E-4,-3.664818E-2,-2.2472275E-2,5.567414E0,4.901E-3,2.5848215E1,-9.972274E-3,5.61E-4,3.2527722E-2,4.469077E-3,2.69E-4,4.6445E-2,1.44690825E-2,3.3518076E-3,4.469077E-3,2.2527719E-2,-6.648183E-3,-2.1975837E-3,3.3518076E-3,-1.6481876E-3,6.24E-4,5.5601953E2,8.351803E-3,-2.1975837E-3,3.16E-4,2.87E-4,2.77004E-1,6.8E-4,7.27125E-1,2.79E-4,3.3362906E-2,8.00961E-1,-6.55309E-2,2.316868E0,1.1135737E-2,3.2253027E-2,4.53E-4,-3.26371E-2,-7.6080315E-2,3.88E-4,3.630426E0,1.3351822E-2,3.3518076E-3,-1.747228E-2,3.3518076E-3,-2.6648188E-2,-5.497228E-2,-1.2302168E-1,NaN,2.0603859E2,8.6851E-2,3.08068E-1,7.527709E-3,1.1306823E4,-8.864244E-3,2.5586357E-2,-1.6481876E-3,2.0027732E-2,2.1586E-2,9.2296E-2,4.003543E0,4.939E-3,1.208E-3,-1.1648178E-2,-4.6648193E-2,1.3351822E-2,1.7418E-2,3.84E-4,-5.8864243E-2,2.712E-3,3.90919E-1,1.8716E0,3.002729E0,3.300161E0,-3.5530917E-2,9.184E-3,-1.6648198E-2,-7.46371E-2,-8.864244E-3,-1.6481876E-3,5.446908E-2,2.234099E0,2.446909E-2,2.580584E0,1.782484E0,1.785E-3,-1.5530904E-2,-1.6481876E-3,-2.1648193E-2,1.8351818E-2,-4.247228E-2,-1.1228349E-1,8.93E-4,8.81E-4,-8.864244E-3,5.0277114E-3,3.44E-4,-6.626345E-2,6.83E-4,7.12E-4,2.2253029E-2,9.26265E-1,6.877737E0,9.463E-3,1.28728E-1,1.9683962E1,7.115229E2,3.2E-4,6.92775E-1,1.107E-3,6.216E-3,2.556685E0,7.375E-3,1.5429E-2,3.506E-3,1.1765E-2,6.09E-4,-7.2746985E-2,7.3044E-2,9.505E-3,1.219E-3,3.91009E-1,2.199E-3,1.4938E-2,1.8351818E-2,-1.6481876E-3,1.1135737E-2,7.909E-3,3.984E-3,2.89E-4,3.4158E-2,4.202485E1,5.0277114E-3,1.8351818E-2,3.3518076E-3,9.68966E-1,3.09E-4,3.93629E-2,5.626E-3,8.979E-3,1.488E-3,1.535545E0,7.802407E-3,1.09094E0,-1.1648178E-2,4.469077E-3,1.71E-2,4.774E-3,7.6555E-2,2.780242E-2,3.89342E-1,-8.864244E-3,5.9264887E-2,2.4317395E-2,7.27125E-1,1.44690825E-2,3.3518076E-3,-1.5530921E-2,3.3518076E-3,-6.648183E-3,-1.6481876E-3,-1.6648198E-2,-6.648183E-3,-1.6481876E-3,3.52E-4,1.525E-3,2.048E-3,5.0198E-2,-5.6648184E-2,7.162011E0,7.890857E1,3.5092E-2,6.16E-4,3.3451E-2,-1.9972289E-2,8.351803E-3,-1.6648198E-2,-6.996832E-2,3.3518076E-3,1.44690825E-2,-2.8637106E-2,-8.864244E-3,7.809213E0,1.7874E-2,8.67278E-1,-2.2197597E-2,3.4037064E2,1.09994E1,1.172753E0,-3.8864248E-2,9.3628885E-3,3.18414E-1,1.7304E-2,2.2115678E-2,4.7E-4,4.3065E-2,1.8340837E1,1.344402E3,4.469077E-3,-2.1975837E-3,3.3518076E-3,1.44690825E-2,-6.648183E-3,-2.1975837E-3,4.78491E-1,3.53E-4,-8.941364E-2,8.55498E-1,7.802407E-3,3.0031687E-2,-6.648183E-3,7.3628905E-3,-6.648183E-3,3.3518076E-3,-3.2884337E-2,-6.1080314E-2,-1.1648178E-2,-1.6481876E-3,-1.6481876E-3,-6.648183E-3,7.755E-3,-1.9972278E-2,2.84863E-1,1.4445E-2,1.23412E0,-6.996673E-2,-1.6481876E-3,-1.6648198E-2,-2.8864255E-2,2.8191E-2,4.47E-4,-2.5530925E-2,4.53E-3,9.2124E-2,3.8482426E1,5.17E-4,8.887E-3,-2.553091E-2,2.2527719E-2,3.3518076E-3,7.19E-4,1.5450018E1,4.3858E-2,-1.2197575E-2,9.044E-3,6.037E-2,6.466E-3,2.53E-4,1.4641E-2,7.25479E-1,-1.3441364E-1,-3.2197572E-2,1.145E-3,3.91E-4,1.37806E-1,4.105E-3,4.2085E-2,2.55E-4,2.0027721E-2,-1.6481876E-3,2.4863E-2,5.564E-2,3.3518076E-3,-2.4722815E-3,3.21E-4,4.74464E0,-2.4972284E-2,2.9684E-2,-2.7472293E-2,-7.6080315E-2,1.2269496E3,1.2275E-2,5.869637E-2,8.351803E-3,4.3919694E-2,8.1464216E-2,3.003466E-2,4.614499E-2,-1.6481876E-3,1.5027714E-2,3.4796234E-2,5.1803578E-2,8.351803E-3,3.9925236E-2,3.3518076E-3,3.6350805E-2,3.73629E-2,-4.6370984E-3,4.4532035E-2,4.4690925E-3,1.5362891E-2,5.362892E-3,1.8351818E-2,3.3518076E-3,-4.497228E-2,-1.1648178E-2,1.1135737E-2,6.653174E-2,3.4690354E-2,1.3956353E-2,-4.0707897E-2,1.37846535E-2,2.6756812E-2,1.1992677E-2,-1.2197575E-2,-1.6481876E-3,1.339847E-2,-3.5384323E-2,2.4222791E-2,-9.196656E-3,-6.648183E-3,3.3518076E-3,3.3518076E-3,-4.0269434E-2,3.3518076E-3,1.2527704E-2,2.9292122E-2,8.351803E-3,-1.6481876E-3,3.3518076E-3,-6.119732E-3,7.003286E-3,1.1504504E-2,-1.219759E-2,7.527709E-3,-9.134322E-3,5.863508E-4,-1.2472272E-2,-2.1975837E-3,1.0027707E-2,-7.4722767E-3,1.2888821E-2,-3.6080323E-2,-9.688342E-3,-5.152331E-3,3.3518076E-3,2.5362903E-2,5.958769E-3,-5.4413646E-2,-2.7135883E-2,-1.6481876E-3,1.8351818E-2,-3.4408607E-2,-6.0364522E-2,-1.066371E-1,-2.8864255E-2,-6.648183E-3,1.1135753E-2,-3.0707896E-2,-5.530914E-3,-3.247229E-2,-6.648183E-3,-1.0690903E-1,-2.6648188E-2,-2.1648193E-2,-1.6452542E-1,8.351803E-3,-1.6481876E-3,-4.7472287E-2,-1.1648178E-2,-1.4637089E-2,-5.164819E-2,-5.247227E-2,-1.1377521E-1,-8.864244E-3,-1.6481876E-3,-1.2197575E-2,-1.13182716E-1,3.3518076E-3,-4.2930115E-2,-1.6481876E-3,3.3518076E-3,9.292105E-3,3.0865675E-2,-2.8637106E-2,7.0332624E-3,-1.6481876E-3,1.1135753E-2,-6.648183E-3,-3.0384332E-2,-5.608032E-2,7.527721E-3,2.2033257E-2,-9.596783E-3,-3.2966744E-2,1.146025E-2,1.8351818E-2,-6.2464364E-2,1.1144992E-2,3.6398917E-2,2.0865668E-2,-4.489497E-3,-5.9972286E-2,-1.1648178E-2,3.3518076E-3,2.8351808E-2,-1.4966741E-2,-4.2996716E-2,-9.972274E-3,7.802407E-3,-6.648183E-3,-5.465577E-2,-6.648183E-3,-2.1975837E-3,-9.1631554E-2,-2.8864255E-2,-6.371021E-4,-1.788432E-2,-3.8631555E-2,-1.8855004E-2],"split_indices":[159,159,45,134,154,159,159,11,57,30,159,131,77,62,68,159,49,2,48,28,102,5,84,100,158,123,117,97,89,5,48,2,106,21,154,5,0,0,0,31,11,11,78,12,19,13,96,53,30,24,68,147,37,159,48,141,14,117,21,66,27,10,100,0,12,5,34,13,53,68,17,0,0,0,6,101,21,51,5,39,11,159,35,0,51,19,9,57,45,0,127,81,0,3,100,2,48,49,20,19,0,51,7,51,84,3,0,0,11,99,147,0,159,2,0,48,21,0,0,6,2,29,2,13,2,2,110,2,0,0,6,0,2,0,0,0,0,37,18,52,0,20,24,39,3,2,0,3,61,147,133,59,76,0,70,27,3,3,94,13,45,101,0,7,3,0,0,0,0,0,0,0,3,3,159,2,0,2,89,0,136,5,50,0,43,147,71,0,50,159,158,19,51,0,0,0,0,147,0,90,20,149,78,2,0,0,9,30,152,0,2,0,0,115,49,0,0,0,0,0,0,0,0,71,27,0,0,150,2,64,61,3,140,0,3,0,3,0,0,2,0,0,2,3,0,0,0,0,0,0,0,159,123,6,128,0,151,0,0,0,0,0,5,3,0,43,0,0,0,20,71,0,43,21,11,114,75,0,6,0,0,0,0,0,3,0,3,102,49,0,0,0,0,0,0,20,6,0,0,0,0,37,0,0,3,152,28,134,3,121,67,3,140,20,3,78,5,94,48,53,0,49,13,150,6,0,30,0,0,0,5,30,61,65,152,0,0,0,49,20,0,5,5,48,3,0,11,0,0,5,44,49,0,3,0,0,0,3,0,0,0,0,0,0,0,0,0,54,127,115,92,0,3,142,37,2,11,0,0,0,0,0,0,0,0,3,0,3,0,99,11,23,0,0,110,5,0,15,82,3,117,0,0,0,0,0,0,21,2,0,21,0,0,0,0,0,0,0,0,0,0,0,0,17,0,3,36,11,0,0,0,0,45,68,0,0,0,3,7,0,0,0,0,48,9,0,0,6,70,5,10,68,154,0,0,53,78,14,71,0,2,0,0,49,5,0,0,0,3,0,13,0,0,27,13,0,0,0,0,0,0,0,0,0,0,0,0,0,0,0,0,0,0,0,0,0,0,0,0,0,0,0,0,0,0,0,0,0,0,0,0,0,0,0,0,0,0,0,0,0,0,0,0,0,0,0,0,0,0,0,0,0,0,0,0,0,0,0,0,0,0,0,0,0,0,0,0,0,0,0,0,0,0,0,0,0,0,0,0,0,0,0,0,0,0,0,0,0,0,0,0,0,0,0,0,0,0,0,0,0,0,0,0,0,0,0,0,0,0,0,0,0,0,0,0,0,0,0,0,0,0,0,0,0,0,0,0,0,0,0,0,0,0],"split_type":[1,1,0,0,0,1,1,0,0,0,1,0,0,0,0,1,0,0,0,0,0,0,0,0,0,0,0,0,0,0,0,0,0,0,0,0,0,0,0,0,0,0,0,0,0,0,0,0,0,0,0,0,0,1,0,0,0,0,0,0,0,0,0,0,0,0,0,0,0,0,0,0,0,0,0,0,0,0,0,0,0,1,0,0,0,0,0,0,0,0,0,0,0,0,0,0,0,0,0,0,0,0,0,0,0,0,0,0,0,0,0,0,1,0,0,0,0,0,0,0,0,0,0,0,0,0,0,0,0,0,0,0,0,0,0,0,0,0,0,0,0,0,0,0,0,0,0,0,0,0,0,0,0,0,0,0,0,0,0,0,0,0,0,0,0,0,0,0,0,0,0,0,0,0,1,0,0,0,0,0,0,0,0,0,0,0,0,0,0,1,0,0,0,0,0,0,0,0,0,0,0,0,0,0,0,0,0,0,0,0,0,0,0,0,0,0,0,0,0,0,0,0,0,0,0,0,0,0,0,0,0,0,0,0,0,0,0,0,0,0,0,0,0,0,0,0,0,0,0,0,0,1,0,0,0,0,0,0,0,0,0,0,0,0,0,0,0,0,0,0,0,0,0,0,0,0,0,0,0,0,0,0,0,0,0,0,0,0,0,0,0,0,0,0,0,0,0,0,0,0,0,0,0,0,0,0,0,0,0,0,0,0,0,0,0,0,0,0,0,0,0,0,0,0,0,0,0,0,0,0,0,0,0,0,0,0,0,0,0,0,0,0,0,0,0,0,0,0,0,0,0,0,0,0,0,0,0,0,0,0,0,0,0,0,0,0,0,0,0,0,0,0,0,0,0,0,0,0,0,0,0,0,0,0,0,0,0,0,0,0,0,0,0,0,0,0,0,0,0,0,0,0,0,0,0,0,0,0,0,0,0,0,0,0,0,0,0,0,0,0,0,0,0,0,0,0,0,0,0,0,0,0,0,0,0,0,0,0,0,0,0,0,0,0,0,0,0,0,0,0,0,0,0,0,0,0,0,0,0,0,0,0,0,0,0,0,0,0,0,0,0,0,0,0,0,0,0,0,0,0,0,0,0,0,0,0,0,0,0,0,0,0,0,0,0,0,0,0,0,0,0,0,0,0,0,0,0,0,0,0,0,0,0,0,0,0,0,0,0,0,0,0,0,0,0,0,0,0,0,0,0,0,0,0,0,0,0,0,0,0,0,0,0,0,0,0,0,0,0,0,0,0,0,0,0,0,0,0,0,0,0,0,0,0,0,0,0,0,0,0,0,0,0,0,0,0,0,0,0,0,0,0,0,0,0,0,0,0,0,0,0,0,0,0,0,0,0,0,0,0,0,0,0,0,0,0,0,0,0,0,0,0,0],"sum_hessian":[2.436E3,1.637E3,7.99E2,5.12E2,1.125E3,4.12E2,3.87E2,4.98E2,1.4E1,9.4E1,1.031E3,1.64E2,2.48E2,2.34E2,1.53E2,3.33E2,1.65E2,7E0,7E0,4.5E1,4.9E1,7.96E2,2.35E2,2E1,1.44E2,5.3E1,1.95E2,2.2E1,2.12E2,1.31E2,2.2E1,1.38E2,1.95E2,3.2E1,1.33E2,4E0,3E0,3E0,4E0,5E0,4E1,2.3E1,2.6E1,7.58E2,3.8E1,1.76E2,5.9E1,1.2E1,8E0,1.12E2,3.2E1,3.1E1,2.2E1,5E1,1.45E2,1.6E1,6E0,1.22E2,9E1,1.9E1,1.12E2,1E1,1.2E1,1E0,1.37E2,8E0,1.87E2,7E0,2.5E1,1.29E2,4E0,1E0,3E0,2E0,3E0,3.2E1,8E0,1.3E1,1E1,1E1,1.6E1,7.35E2,2.3E1,1.5E1,2.3E1,1.38E2,3.8E1,4.8E1,1.1E1,1E0,1.1E1,6E0,2E0,7E0,1.05E2,5E0,2.7E1,1.6E1,1.5E1,1.5E1,7E0,2.9E1,2.1E1,9.3E1,5.2E1,4E0,1.2E1,3E0,3E0,4.2E1,8E1,4E0,8.6E1,3E0,1.6E1,9E0,1.03E2,9E0,1E0,7E0,5E0,1.34E2,3E0,5E0,3E0,2E0,1.85E2,3E0,4E0,1E0,2.4E1,1E0,1.28E2,2E0,2E0,2E0,1E0,2.2E1,1E1,5E0,3E0,7E0,6E0,7E0,3E0,4E0,6E0,2E0,1.4E1,4.25E2,3.1E2,1.6E1,7E0,4E0,1.1E1,9E0,1.4E1,2E0,1.36E2,1.4E1,2.4E1,4.6E1,2E0,6E0,5E0,2E0,9E0,3E0,3E0,1E0,1E0,2E0,5E0,5E0,1E2,3E0,2E0,2E0,2.5E1,3E0,1.3E1,5E0,1E1,1E0,1.4E1,7E0,2.2E1,6E0,1.5E1,6.6E1,2.7E1,9E0,4.3E1,3E0,1E0,2E0,1E0,3.9E1,3E0,3E1,5E1,5.8E1,2.8E1,2E0,1E0,3E0,6E0,5.4E1,4.9E1,3E0,4E0,3E0,2E0,9.8E1,3.6E1,2E0,1E0,2E0,3E0,1E0,2E0,1E0,1E0,3E1,1.55E2,1E0,2E0,2.1E1,3E0,1.18E2,1E1,4E0,1.8E1,4E0,6E0,2E0,3E0,2E0,5E0,2E0,4E0,5E0,2E0,2E0,1E0,1E0,3E0,1E0,1E0,3E0,1.1E1,1.08E2,3.17E2,4E0,3.06E2,3E0,1.3E1,2E0,5E0,1E0,3E0,4E0,7E0,3E0,6E0,1.3E1,1E0,1E0,1E0,4E0,1.32E2,2E0,1.2E1,1.2E1,1.2E1,2.5E1,2.1E1,2E0,4E0,1E0,4E0,2E0,1E0,2E0,3E0,2E0,3E0,3.9E1,6.1E1,2E0,1E0,1E0,1E0,3E0,2.2E1,8E0,5E0,2E0,3E0,2E0,8E0,1.2E1,2E0,5E0,2E0,9E0,1.3E1,1.3E1,2E0,2.6E1,4E1,6E0,2.1E1,5E0,4E0,3.9E1,4E0,2.8E1,1.1E1,2.5E1,5E0,7E0,4.3E1,5.2E1,6E0,4E0,2.4E1,1E0,1E0,2E0,4E0,3E1,2.4E1,8E0,4.1E1,3E0,1E0,1E0,9.7E1,3.2E1,4E0,2.6E1,4E0,9.5E1,6E1,2E0,1.9E1,1E0,2E0,8E0,1.1E2,8E0,2E0,2E0,2E0,1.2E1,6E0,4E0,2E0,1E0,2E0,1E0,1E0,1E0,1E0,1E0,1E0,4E1,6.8E1,2.3E1,2.94E2,1E0,3E0,1.23E2,1.83E2,2E0,1.1E1,3E0,1E0,1E0,6E0,1E0,2E0,4E0,2E0,4E0,9E0,2E0,2E0,2.2E1,1.1E2,1E1,2E0,4E0,8E0,5E0,7E0,9E0,1.6E1,9E0,1.2E1,2E0,2E0,1E0,2E0,1E0,2E0,3.7E1,2E0,5E0,5.6E1,2E0,6E0,1E0,4E0,1E0,1E0,7E0,5E0,1E0,1E0,1E0,1E0,6E0,3E0,3E0,1E1,4E0,9E0,1E0,1E0,2E0,2.4E1,3.8E1,2E0,2E0,4E0,5E0,1.6E1,3E0,2E0,3E0,1E0,3E1,9E0,2E0,2E0,1.5E1,1.3E1,3E0,8E0,8E0,1.7E1,5E0,2E0,1.5E1,2.8E1,3.2E1,2E1,4E0,2E0,3E0,1E0,1.9E1,5E0,1E0,3E0,2.7E1,3E0,3E0,2.1E1,3E0,5E0,1.1E1,3E1,9.6E1,1E0,5E0,2.7E1,1.5E1,1.1E1,1E0,3E0,1.3E1,8.2E1,1E0,5.9E1,1E0,1.8E1,4E0,4E0,1.08E2,2E0,4E0,4E0,1E0,1E0,3E0,1E0,2E0,3.8E1,5.2E1,1.6E1,8E0,1.5E1,2.49E2,4.5E1,2E0,1E0,1.16E2,7E0,1.71E2,1.2E1,1E0,1E0,1E0,1E1,1E0,3E0,8E0,1E0,1E0,1E0,1.2E1,1E1,1.08E2,2E0,3E0,7E0,5E0,3E0,2E0,3E0,3E0,6E0,5E0,1.1E1,8E0,1E0,4E0,8E0,5E0,3.2E1,1E0,1E0,3.2E1,2.4E1,4E0,2E0,1E0,2E0,8E0,2E0,3E0,1E0,2.3E1,1E0,1E0,3.7E1,1E0,1E0,3E0,1E0,4E0,1E0,3E0,1.3E1,2E0,1E0,2E0,2.8E1,1E0,8E0,1E0,1E0,8E0,7E0,4E0,9E0,1E0,2E0,1E0,7E0,5E0,3E0,9E0,8E0,9E0,6E0,1E0,2.7E1,1.1E1,2.1E1,7E0,1.3E1,3E0,1E0,1E0,1E0,9E0,1E1,3E0,2E0,1E0,2.6E1,1E0,2E0,1.9E1,2E0,4E0,7E0,1.9E1,1.1E1],"tree_param":{"num_deleted":"0","num_feature":"160","num_nodes":"613","size_leaf_vector":"1"}},{"base_weights":[-1.2727956E-3,1.9937022E-1,-4.1208777E-1,3.8360232E-1,1.1525792E-1,-5.7558066E-1,-2.3699845E-1,4.0429267E-1,-3.3026963E-1,-1.9950671E-1,1.4412166E-1,-3.585542E-1,-7.170818E-1,-1.1204696E-1,-4.2613226E-1,4.5440537E-1,3.0102798E-1,-2.678299E-2,-5.9247255E-1,1.1253004E-1,-4.825904E-1,1.849082E-1,5.7700044E-3,1.8895534E-1,-4.353759E-1,-3.6226776E-1,-8.327834E-1,3.3169124E-1,-1.594363E-1,-4.7861722E-1,-1.06386706E-1,5.477139E-1,3.8591412E-1,1.1481334E-1,3.4464034E-1,-1.5405798E-1,1.390065E-2,-9.0161875E-2,-2.2666112E-2,-3.6989665E-1,1.8038443E-1,-1.6309237E-1,-7.487149E-1,1.9798005E-1,-7.423134E-2,4.809607E-2,-1.1918805E-1,3.514755E-1,-6.679106E-2,-3.3615983E-1,-7.619226E-1,-4.4737282E-1,8.07173E-2,-3.1930098E-1,-9.0284926E-1,4.4822866E-1,1.2873241E-3,-2.7276003E-1,-4.5104236E-3,-7.539542E-1,-4.2564946E-1,-3.5829896E-1,1.14953406E-1,-3.4815766E-2,5.567286E-1,8.564583E-2,3.9823592E-1,-2.5601935E-1,2.244998E-1,3.576272E-1,-6.1946392E-2,-2.0866092E-2,-4.810238E-3,-7.9828866E-2,4.3871522E-2,2.6570553E-1,-1.5250227E-1,3.7269898E-2,-4.0327233E-1,-3.9357576E-1,-9.344688E-1,2.2721411E-1,9.217873E-2,-4.6129608E-1,1.0122732E-2,6.9872506E-2,-3.0750629E-2,-4.6815038E-2,-3.7724316E-1,3.1842233E-3,3.754581E-2,-1.719269E-1,2.0078962E-1,1.3655257E-1,-3.6866492E-1,-2.5729975E-2,-8.9246666E-1,8.621693E-3,-5.169507E-1,-2.0929265E-1,2.1563262E-1,-5.963522E-1,-1.1331342E-1,-1.0557538E0,-6.202188E-1,1.9794206E-1,5.1001366E-2,-1.6161859E-2,1.6387141E-1,-1.9591355E-1,-6.3668513E-1,-5.7626106E-2,2.8400652E-2,-9.4736695E-2,-8.647139E-2,-5.4746248E-2,-4.5722044E-1,-3.9099727E-2,-1.5657902E-3,2.0716846E-2,2.2144325E-1,5.659552E-1,1.06147885E-1,1.5977669E-1,-4.6961904E-2,1.0789554E-2,4.02344E-1,2.4288058E-2,-4.290614E-1,-3.0065775E-2,2.5753242E-1,-3.0065775E-2,3.650609E-1,1.972669E-2,-3.0051088E-2,2.9060045E-2,-3.4815766E-2,3.788584E-1,4.958066E-3,-3.6767444E-1,2.0838154E-2,2.6071453E-1,-2.2341967E-1,-5.665061E-1,2.401328E-2,-6.6824555E-2,-5.077544E-2,-1.4754374E-1,-1.0295559E0,1.9340682E-1,2.9919472E-1,1.954642E-1,1.2928917E-2,4.096985E-2,-6.7039646E-2,-2.1699147E-1,1.0433187E-1,-2.108771E-1,7.551029E-2,-2.0831195E-1,7.701618E-2,-2.1135993E-2,-4.2495538E-2,-4.4447996E-2,-5.202134E-1,-6.987858E-2,-2.3099352E-2,3.1842233E-3,2.693422E-2,-3.0051073E-2,3.3232546E-1,8.288121E-2,-3.918393E-1,-1.165452E-1,1.0393365E-2,-2.0877043E-2,-9.5870906E-1,1.2699819E-1,-2.3100519E-1,-7.752777E-1,-4.1361147E-1,-2.3769045E-2,-6.2049627E-3,2.6695052E-2,4.111926E-3,-1.3395691E-1,-7.753849E-2,2.853446E-2,-3.3084098E-1,-1.4683645E0,-8.711313E-1,-3.756995E-1,-8.862516E-1,2.3150647E-2,3.1842233E-3,1.9726707E-2,3.1842233E-3,-3.1079388E-1,-7.207215E-3,-7.234153E-1,1.24834385E-2,1.2836093E-1,-1.7594615E-1,1.05789505E-1,-3.4815766E-2,-2.0786846E-2,4.0573053E-2,-5.812303E-1,-3.1166524E-1,-9.224367E-3,1.0694189E-1,3.0088127E-2,4.1711493E-3,5.208811E-1,6.7126274E-1,1.20302355E-2,3.1842233E-3,4.1711493E-3,2.0838141E-2,-6.31578E-3,-2.0510673E-3,3.1842233E-3,-1.5657902E-3,4.2019936E-1,3.2894817E-1,7.934213E-3,-2.0510673E-3,-1.908846E-2,-5.242178E-2,2.9702234E-1,-2.4045229E-2,3.8118488E-1,1.5744127E-1,3.2834053E-2,4.4997752E-1,3.0693874E-2,-2.1145071E-1,-6.1162185E-2,-9.279525E-2,1.0393365E-2,2.9565254E-2,-2.0877043E-2,-3.0026132E-2,-6.974029E-2,-1.1587715E-1,-5.25438E-2,1.2684226E-2,3.1842233E-3,-1.1032756E-2,3.1842233E-3,-2.5315786E-2,-5.0849367E-2,-1.117447E-1,3.1767324E-1,1.6929391E-1,2.0234947E-1,3.645527E-1,-2.337172E-1,2.1751146E-1,5.244238E-2,-2.6474273E-1,1.235044E-2,-6.2049627E-3,7.189766E-2,-2.9820096E-1,1.6828258E-1,-2.574923E-2,-4.4315793E-2,1.2684226E-2,8.1676215E-2,-1.4992571E-2,-5.4939967E-2,-1.13575384E-1,1.12900365E-4,1.4799514E-1,-1.1524699E-1,4.935867E-2,-1.1163759E-2,2.5880337E-4,-1.3779533E-1,-6.884566E-2,-8.273284E-3,-1.5657902E-3,5.0837804E-2,1.17204666E-1,2.283783E-2,-4.6961904E-2,-2.6904687E-1,-4.6474022E-1,-1.4495499E-2,-1.5657902E-3,-2.0565772E-2,1.7434215E-2,-3.9286852E-2,-1.0154331E-1,1.6018678E-2,4.0414017E-3,-2.8335E-2,-6.31578E-3,-3.7235975E-2,-9.301917E-2,-2.1556099E-1,-5.075699E-1,-1.5657902E-3,-1.6817061E-2,-1.1716604E-1,1.451958E-1,-1.5657902E-3,-3.9074603E-2,-2.0565772E-2,-1.5035995E0,-1.3305335E0,-7.3410517E-1,-2.4384412E-1,-9.284079E-1,-1.0631359E0,-3.9470312E-1,-6.731948E-1,-2.3121601E-1,1.23282716E-1,-2.5835156E-1,-6.9997944E-3,-7.961704E-1,1.7757012E-1,-2.6256016E-1,8.386224E-2,-2.4736844E-1,1.7434215E-2,-1.5657902E-3,1.0393365E-2,-5.5579185E-3,-4.1988683E-1,-7.1140414E-1,-5.463912E-1,-2.3932399E-1,4.6506287E-3,1.7434215E-2,3.1842233E-3,5.2554643E-1,1.6155839E-2,6.809335E-1,3.6462012E-1,4.5473582E-1,8.823323E-2,3.4563008E-1,2.1350053E-1,3.9394268E-1,-1.1065769E-2,4.1711493E-3,3.438267E-1,4.95745E-1,1.0593181E-1,2.5948921E-2,1.3745625E-1,-8.273284E-3,5.3794302E-2,2.2233057E-1,-3.7705785E-1,1.3504474E-2,3.1842233E-3,-1.4495516E-2,3.1842233E-3,-6.31578E-3,-1.5657902E-3,-1.5815783E-2,-6.31578E-3,-1.5657902E-3,2.7339723E-2,3.5794216E-1,2.2900097E-1,8.108296E-2,2.509928E-1,1.304144E-2,4.8930016E-1,2.8449634E-1,-2.2478104E-3,-2.9663755E-2,1.7913005E-1,4.5348427E-1,8.3365425E-2,-2.517472E-1,-3.382047E-1,6.8378127E-3,-1.5657902E-3,1.235044E-2,-1.0577265E-2,-3.4471497E-2,-6.74355E-2,2.1131533E-1,4.0692043E-2,1.1856614E-1,-3.529826E-2,-3.6273304E-2,8.6138725E-2,-4.769177E-2,2.0331651E-2,4.956746E-2,4.2429445E-3,-2.133972E-1,2.6111556E-2,2.1973496E-2,3.1283617E-3,-2.0510673E-3,-2.0458287E-2,3.1283617E-3,3.1842233E-3,1.3504474E-2,-6.31578E-3,-2.0510673E-3,-2.9155904E-1,1.05789505E-1,-3.5687488E-1,-6.0036623E-1,-1.6994318E-2,-2.501191E-1,-5.620222E-1,4.2785805E-2,-1.5657902E-3,-1.386286E-2,1.8789744E-2,3.986168E-3,-1.125256E-1,-1.7267294E0,-1.3774988E-1,-3.130274E-2,-5.425412E-1,-1.0640316E0,9.054724E-3,-4.9738973E-1,-1.0649562E-2,-1.07149124E-1,-3.8392592E-2,-1.2089429E0,-4.5200158E-2,3.1842233E-3,-2.839323E-1,-8.550688E-2,-5.371659E-1,-1.2110592E-1,-6.658622E-2,3.0434576E-1,-4.7541627E-1,-8.493604E-2,-2.4357224E-2,-8.5361205E-2,2.5630873E-1,4.5382295E-2,-4.88058E-1,2.0078962E-1,1.846058E-2,-1.1199776E-2,-3.0772036E-1,-2.5084576E-2,3.1842233E-3,-2.2868514E-3,-4.645457E-1,-4.6961904E-2,-2.3099352E-2,-7.5795174E-1,-3.0431429E-2,-6.974029E-2,-1.4707151E-1,-3.3354664E-1,5.3957075E-2,3.0032594E-2,6.911568E-2,1.6155839E-2,3.7208166E-2,9.633669E-3,4.6134595E-2,1.180741E-2,1.2808292E-2,-1.5657902E-3,1.4236367E-2,3.5898536E-2,1.2561172E-2,2.8344482E-2,1.1534286E-2,4.143498E-2,3.6372624E-2,4.7386102E-3,5.2156676E-2,2.1687841E-2,1.4133873E-2,4.933853E-3,1.7434215E-2,3.1842233E-3,2.5417527E-2,9.514586E-3,-4.1599344E-2,-1.1065769E-2,2.6648149E-2,-3.3820786E-2,-1.7986035E-2,3.7075754E-2,-3.2337427E-2,2.33315E-2,-1.2887363E-2,1.3709751E-2,1.2953656E-2,2.9773546E-2,1.7138958E-2,-1.4675575E-2,5.2858986E-2,-1.6099334E-3,2.9444177E-2,9.631777E-3,1.5117271E-3,2.2323525E-2,1.2013984E-2,4.8013486E-2,-1.3009994E-2,1.1000054E-2,6.1974428E-3,-5.809624E-2,2.9754161E-3,-3.8239505E-2,7.934213E-3,-1.4280875E-2,1.1329619E-2,2.4029993E-2,6.0015875E-3,-2.6900029E-2,7.7562826E-3,1.5513698E-2,2.9576642E-3,-1.1906347E-2,1.0511558E-2,3.844897E-3,5.37475E-4,-1.1536861E-2,-2.0510673E-3,8.97342E-3,-1.614126E-2,9.829712E-3,2.497673E-4,-2.9467E-2,-2.8030293E-3,7.848012E-3,-4.987916E-2,-2.4504526E-2,-1.5657902E-3,1.7434215E-2,-1.8752873E-2,-4.6381414E-2,-1.3593829E-2,-6.5503344E-2,-5.6495667E-3,3.1004192E-3,-2.6272107E-2,-6.2049627E-3,-2.4789333E-2,-6.213529E-2,7.983661E-3,-1.5657902E-3,-8.263288E-2,-1.860649E-1,-3.8228717E-2,-8.128496E-2,-3.2120097E-2,-1.16999224E-1,1.4808974E-2,-2.2417944E-2,-3.9542676E-3,-7.473556E-2,-7.744979E-2,-1.3921602E-1,-3.443514E-2,-2.112794E-3,-1.1735662E-2,-7.573536E-2,-1.6733207E-3,-2.8314246E-2,1.8310629E-2,-2.767439E-2,8.67302E-3,3.8271897E-2,-5.1639955E-2,-1.3524986E-2,-1.7944241E-2,2.655754E-3,1.0123356E-2,3.292448E-2,1.9039942E-2,-4.072622E-3,-5.5474367E-2,-1.1065769E-2,3.1842233E-3,2.693422E-2,-1.3161428E-2,-3.8480558E-2,-9.224367E-3,7.2822417E-3,-4.8133865E-2,-3.9154054E-3,-6.31578E-3,-2.0510673E-3,-8.03609E-2,-3.0593503E-2,7.549524E-5,-1.7045228E-2,-1.2357044E-2,-3.8130227E-2],"categories":[0,1,2,4,6,7,9,10,17,19,23,28,29,32,36,39,0,1,2,3,4,5,6,7,9,10,11,12,13,14,15,17,19,20,22,23,24,25,26,28,29,30,32,33,34,36,37,39,42,45,46,0,1,7,10,17,19,23,29,36,39,10,17,23,29,32,36,0,1,2,4,6,7,8,9,10,14,16,17,18,19,21,23,25,26,27,28,29,31,32,35,36,37,38,39,40,41,43,44,0,1,2,3,4,5,6,7,9,10,11,12,13,14,15,16,17,18,19,20,21,22,23,24,25,26,27,28,29,30,31,32,33,34,36,37,38,39,42,45,46,0,1,2,3,4,6,7,8,9,10,12,13,14,16,17,18,19,20,21,23,24,25,26,27,28,29,30,31,32,35,36,37,38,39,40,41,42,43,44,45,46,39,2,9,0,1,2,3,4,5,6,7,8,9,10,11,14,16,17,18,19,20,21,22,23,25,26,27,28,29,31,32,35,36,37,38,39,40,41,42,43,44,0,1,2,4,6,7,8,9,10,11,12,13,14,15,16,17,18,19,20,21,22,23,24,25,26,27,28,29,30,31,32,33,34,35,36,37,38,39,40,41,43,44,45,46,0,1,2,3,4,5,6,7,9,10,11,12,13,14,15,16,17,18,19,20,22,23,24,25,26,27,28,29,30,32,33,34,35,36,37,39,40,41,42,44,45,46],"categories_nodes":[0,1,5,6,10,15,82,112,172,254,256,350],"categories_segments":[0,16,51,61,67,99,140,181,182,184,222,266],"categories_sizes":[16,35,10,6,32,41,41,1,2,38,44,42],"default_left":[1,1,1,0,1,1,1,0,1,1,1,0,0,0,0,1,1,1,1,0,0,0,0,0,0,0,0,0,1,0,1,0,0,1,0,0,0,0,0,0,1,0,0,1,0,1,0,0,1,0,0,0,1,0,1,0,0,0,0,0,0,0,0,0,1,0,0,0,0,0,0,0,0,0,0,0,0,0,1,0,0,0,1,0,0,0,0,0,0,0,0,0,0,0,0,0,0,0,0,0,0,0,0,1,0,0,0,0,0,0,0,0,1,1,0,0,0,0,0,0,0,1,1,0,0,0,1,0,0,0,0,0,1,0,0,0,0,0,0,0,0,1,0,0,0,0,0,0,0,1,1,0,1,0,0,0,0,0,0,0,0,0,0,0,0,0,0,0,0,0,0,0,1,0,0,0,0,0,0,0,0,0,0,0,0,0,0,0,0,0,0,0,1,0,0,0,0,0,1,0,0,1,0,0,0,0,0,0,0,0,0,0,0,0,0,0,0,0,0,0,0,0,0,0,0,0,0,0,0,0,0,0,1,0,1,0,0,0,0,0,0,0,0,0,0,0,0,0,0,0,0,0,0,0,1,0,1,0,1,1,0,0,0,0,0,0,0,0,0,0,0,0,1,0,0,0,0,0,0,0,0,0,0,0,0,0,0,1,0,0,0,0,0,0,0,0,0,0,0,0,0,0,1,0,0,0,0,0,0,0,0,0,1,0,0,0,0,0,0,0,0,0,0,0,0,1,0,0,0,0,0,0,0,1,0,0,0,0,0,0,0,1,1,0,0,0,0,0,0,1,1,0,0,0,0,0,1,0,0,0,0,0,0,0,0,0,0,0,0,0,0,1,0,0,0,0,0,0,0,0,0,0,0,0,0,0,0,0,0,0,0,0,0,0,0,0,0,0,0,0,0,0,0,0,0,0,0,0,0,0,0,0,0,0,1,0,0,0,0,0,0,0,0,0,0,0,0,0,0,0,0,0,0,0,0,0,0,0,1,0,0,1,0,0,0,0,0,1,0,0,0,0,0,0,0,1,0,0,1,0,0,0,0,0,0,0,0,0,0,0,0,0,0,0,0,0,0,0,0,0,0,0,0,0,0,0,0,0,0,0,0,0,0,0,0,0,0,0,0,0,0,0,0,0,0,0,0,0,0,0,0,0,0,0,0,0,0,0,0,0,0,0,0,0,0,0,0,0,0,0,0,0,0,0,0,0,0,0,0,0,0,0,0,0,0,0,0,0,0,0,0,0,0,0,0,0,0,0,0,0,0,0,0,0,0,0,0,0,0,0,0,0,0,0,0,0,0,0,0,0,0,0,0,0,0,0,0,0,0,0,0,0,0,0,0,0,0,0,0,0,0,0,0],"id":1,"left_children":[1,3,5,7,9,11,13,15,17,19,21,23,25,27,29,31,33,35,37,39,41,43,45,47,49,51,53,55,57,59,61,63,65,67,69,71,-1,-1,-1,73,75,77,79,81,83,85,87,89,91,93,95,97,99,101,103,105,107,109,111,113,115,117,119,-1,121,123,125,127,129,131,133,-1,-1,-1,135,137,139,141,143,145,147,149,151,153,155,157,159,161,163,-1,-1,165,167,169,171,173,175,177,179,181,183,185,187,189,191,193,-1,-1,195,197,199,-1,201,203,-1,205,207,-1,-1,209,211,213,215,217,219,221,223,225,227,-1,229,-1,231,-1,-1,-1,-1,233,235,237,-1,239,241,243,245,247,-1,249,251,253,255,257,259,261,-1,263,265,267,269,271,273,275,-1,277,279,281,-1,-1,-1,-1,283,285,287,289,-1,291,293,295,297,299,301,-1,-1,-1,-1,303,-1,305,307,309,311,313,315,-1,-1,-1,-1,317,319,321,-1,323,325,327,-1,-1,329,331,333,-1,335,-1,-1,337,339,-1,-1,-1,-1,-1,-1,-1,-1,341,343,-1,-1,-1,-1,345,347,349,351,353,355,-1,357,-1,359,-1,-1,361,-1,-1,363,365,-1,-1,-1,-1,-1,-1,-1,367,369,371,373,375,377,379,381,-1,-1,383,385,387,-1,-1,-1,389,-1,-1,391,393,395,397,399,-1,401,403,-1,-1,-1,-1,405,-1,407,409,411,-1,-1,-1,-1,-1,-1,-1,-1,-1,-1,-1,-1,413,415,-1,-1,417,419,-1,-1,-1,421,423,425,427,429,431,433,435,437,439,441,-1,443,445,447,449,451,-1,-1,-1,453,455,457,459,461,-1,-1,-1,463,-1,465,467,469,471,473,475,477,-1,-1,479,481,483,-1,485,-1,-1,487,489,-1,-1,-1,-1,-1,-1,-1,-1,-1,491,493,495,497,499,501,503,505,-1,-1,507,509,511,513,515,-1,-1,-1,-1,-1,517,519,521,523,525,-1,527,529,-1,531,533,535,-1,537,-1,-1,-1,-1,-1,-1,-1,-1,539,541,543,545,547,549,551,553,-1,-1,-1,-1,-1,555,-1,-1,557,559,561,563,-1,-1,-1,565,-1,-1,567,-1,569,571,573,575,577,579,-1,-1,581,583,585,587,-1,-1,589,591,-1,-1,593,595,-1,597,-1,-1,599,601,-1,-1,-1,-1,-1,-1,-1,-1,-1,-1,-1,-1,-1,-1,-1,-1,-1,-1,-1,-1,-1,-1,-1,-1,-1,-1,-1,-1,-1,-1,-1,-1,-1,-1,-1,-1,-1,-1,-1,-1,-1,-1,-1,-1,-1,-1,-1,-1,-1,-1,-1,-1,-1,-1,-1,-1,-1,-1,-1,-1,-1,-1,-1,-1,-1,-1,-1,-1,-1,-1,-1,-1,-1,-1,-1,-1,-1,-1,-1,-1,-1,-1,-1,-1,-1,-1,-1,-1,-1,-1,-1,-1,-1,-1,-1,-1,-1,-1,-1,-1,-1,-1,-1,-1,-1,-1,-1,-1,-1,-1,-1,-1,-1,-1,-1,-1,-1,-1,-1,-1,-1,-1,-1,-1,-1,-1,-1,-1,-1,-1,-1,-1,-1,-1,-1,-1,-1,-1,-1,-1],"loss_changes":[2.0095714E2,2.533854E1,2.2764267E1,7.710663E0,1.0258785E1,1.2425903E1,9.121683E0,2.4454727E0,1.1777583E0,8.445894E0,5.8223896E0,7.0222683E0,9.920395E0,4.994573E0,2.5334816E0,1.9231644E0,1.3085594E0,1.9022189E-1,7.003517E-1,1.5725231E0,4.129204E0,2.7144794E0,1.2539324E0,8.963182E-1,4.441681E0,2.4112272E0,6.4395294E0,8.850248E-1,3.7383628E0,1.604166E0,1.3236282E0,1.3163986E0,6.910629E-1,1.3997622E0,7.297125E-1,1.8890344E-2,0E0,0E0,0E0,1.098552E0,1.205013E0,1.169982E0,1.4133654E0,2.3266468E0,1.2780385E0,3.060577E-1,1.1029129E0,8.769786E-2,2.8771204E-1,1.7866507E0,3.1485214E0,1.685996E0,4.7552493E-1,1.302084E0,6.4325256E0,1.619339E-1,2.1188605E-1,3.3151283E0,1.7287066E0,1.378376E0,1.2981739E0,1.1711955E-1,1.2587045E-1,0E0,5.1363754E-1,9.597634E-2,2.9489136E-1,3.9846087E-1,5.2845967E-1,7.4591064E-1,3.684763E-1,0E0,0E0,0E0,4.8807454E-1,9.717643E-1,7.754859E-1,8.737443E-1,7.808254E-1,3.764578E-1,1.1201448E0,1.3876114E0,1.3562416E0,7.6263404E-1,7.287148E-1,2.3593336E-1,7.6231676E-1,4.5711172E-1,5.954151E-1,0E0,0E0,2.6052043E-2,2.6168875E-2,7.843885E-1,1.1416912E0,8.2765564E-2,1.5965977E0,2.5626677E-1,9.07321E-1,1.9769222E-3,6.066847E-2,7.2397065E-1,4.7227773E-1,6.719467E0,3.5700436E0,2.0503536E-2,0E0,0E0,1.135537E-2,2.2306602E0,1.4772882E0,0E0,1.7996957E0,2.4010159E-1,0E0,1.5438887E-1,1.6960812E0,0E0,0E0,8.7784916E-2,7.311502E-2,2.9114914E-1,3.7633628E-4,2.5739267E-2,4.1819643E-4,2.1689518E-3,1.0553169E-1,1.149277E-2,1.325506E-2,0E0,2.8512895E-1,0E0,3.718319E-1,0E0,0E0,0E0,0E0,5.512314E-1,7.837663E-1,3.4558082E-1,0E0,1.3092697E-2,1.02677405E-1,3.9107394E-1,3.815392E-2,2.0682283E-2,0E0,6.489817E-2,1.1873627E-1,1.1657639E0,1.1161995E0,7.321203E-1,1.0562017E0,3.31714E-2,0E0,2.560453E-1,5.9866536E-1,2.915483E-1,2.0267826E-1,4.2230386E-1,1.364462E-1,3.1086725E-1,0E0,1.5048051E-2,4.8418713E-1,1.4924444E-3,0E0,0E0,0E0,0E0,1.6765118E-1,1.24075845E-1,7.7908325E-1,9.195056E-3,0E0,1.4407302E-1,4.3558502E-1,1.0767832E-2,8.4620565E-3,4.026456E-1,5.4188585E-1,0E0,0E0,0E0,0E0,1.3556585E-2,0E0,1.8698817E-1,1.0716814E-1,1.0700073E0,3.7445068E0,2.1785736E0,2.0148983E0,0E0,0E0,0E0,0E0,1.6900482E0,1.3427227E0,8.475189E-1,0E0,1.1816003E0,5.588721E-1,2.770646E-2,0E0,0E0,2.1037856E-2,8.564377E-1,7.182541E-1,0E0,1.2258872E-2,0E0,0E0,2.0913315E-1,7.236862E-2,0E0,0E0,0E0,0E0,0E0,0E0,0E0,0E0,1.14442825E-1,1.341424E-1,0E0,0E0,0E0,0E0,9.398222E-2,2.7397104E-2,3.3884048E-1,3.0332595E-2,7.1826465E-2,2.60875E-1,0E0,4.5259443E-1,0E0,3.0620012E-2,0E0,0E0,8.698117E-3,0E0,0E0,1.0235593E-2,1.8560141E-4,0E0,0E0,0E0,0E0,0E0,0E0,0E0,7.501564E-1,1.7879505E0,7.149954E-1,9.693346E-1,4.6497107E-2,5.436981E-1,8.111302E-1,3.167866E-1,0E0,0E0,1.548919E-2,3.5143495E-2,2.2726572E-1,0E0,0E0,0E0,1.9777018E-1,0E0,0E0,2.4073966E-1,5.756978E-2,6.070909E-2,2.3546469E-1,1.5083535E-1,0E0,3.2191246E-3,5.1569544E-2,0E0,0E0,0E0,0E0,1.7913617E-3,0E0,4.1819643E-4,3.6837888E-1,6.927643E-1,0E0,0E0,0E0,0E0,0E0,0E0,0E0,0E0,0E0,0E0,0E0,0E0,8.495653E-2,7.133131E-1,0E0,0E0,8.722484E-3,1.9497737E-2,0E0,0E0,0E0,5.895767E-1,3.3340454E-1,3.21484E0,1.7999028E0,5.9150267E-1,1.5165291E0,2.3435628E-1,5.359826E-1,1.754107E0,9.4847775E-1,4.8661363E-1,0E0,3.3170033E-1,5.4000723E-1,8.2938755E-1,1.5879685E-1,3.008318E-1,0E0,0E0,0E0,3.965279E-3,4.278531E-1,4.7341633E-1,1.898911E-1,2.9863548E-1,0E0,0E0,0E0,1.4749336E-1,0E0,7.9488754E-2,8.6265564E-2,1.3690948E-1,1.8565621E-2,5.2051544E-2,5.045849E-2,3.376484E-3,0E0,0E0,5.31374E-1,8.130598E-2,1.10607E-2,0E0,6.135557E-3,0E0,0E0,4.1674078E-3,5.829394E-3,0E0,0E0,0E0,0E0,0E0,0E0,0E0,0E0,0E0,8.768853E-1,4.595375E-1,5.61573E-1,1.6641555E0,3.134179E-1,4.553134E-1,8.4250355E-1,1.026454E-1,0E0,0E0,4.378879E-1,2.2271156E-2,4.521079E-1,8.622602E-1,1.7398012E-1,0E0,0E0,0E0,0E0,0E0,5.558318E-2,2.39138E-2,4.0513298E-1,9.293395E-2,6.329835E-2,0E0,4.8342347E-4,3.2942444E-2,0E0,1.8729366E-2,1.7167236E-1,1.9374615E-1,0E0,7.2838455E-2,0E0,0E0,0E0,0E0,0E0,0E0,0E0,0E0,2.4406219E-1,2.770646E-2,5.830827E-1,5.7106876E-1,7.43962E-3,9.768784E-3,2.373581E-1,7.7462317E-3,0E0,0E0,0E0,0E0,0E0,5.123749E-1,0E0,0E0,1.421979E0,1.2771225E0,5.196144E-1,1.5726931E0,0E0,0E0,0E0,1.953392E-1,0E0,0E0,7.211661E-2,0E0,1.2052355E0,6.88662E-1,7.8532064E-1,2.0558E-1,1.3803959E-2,9.9597216E-2,0E0,0E0,3.399179E-1,2.6998562E-1,6.444919E-2,2.6168875E-2,0E0,0E0,1.9370711E-1,4.6169475E-2,0E0,0E0,1.5259933E-1,4.1819643E-4,0E0,2.9073048E-1,0E0,0E0,7.6167196E-2,1.4340568E-1,0E0,0E0,0E0,0E0,0E0,0E0,0E0,0E0,0E0,0E0,0E0,0E0,0E0,0E0,0E0,0E0,0E0,0E0,0E0,0E0,0E0,0E0,0E0,0E0,0E0,0E0,0E0,0E0,0E0,0E0,0E0,0E0,0E0,0E0,0E0,0E0,0E0,0E0,0E0,0E0,0E0,0E0,0E0,0E0,0E0,0E0,0E0,0E0,0E0,0E0,0E0,0E0,0E0,0E0,0E0,0E0,0E0,0E0,0E0,0E0,0E0,0E0,0E0,0E0,0E0,0E0,0E0,0E0,0E0,0E0,0E0,0E0,0E0,0E0,0E0,0E0,0E0,0E0,0E0,0E0,0E0,0E0,0E0,0E0,0E0,0E0,0E0,0E0,0E0,0E0,0E0,0E0,0E0,0E0,0E0,0E0,0E0,0E0,0E0,0E0,0E0,0E0,0E0,0E0,0E0,0E0,0E0,0E0,0E0,0E0,0E0,0E0,0E0,0E0,0E0,0E0,0E0,0E0,0E0,0E0,0E0,0E0,0E0,0E0,0E0,0E0,0E0,0E0,0E0,0E0,0E0,0E0,0E0,0E0,0E0,0E0,0E0,0E0,0E0,0E0],"parents":[2147483647,0,0,1,1,2,2,3,3,4,4,5,5,6,6,7,7,8,8,9,9,10,10,11,11,12,12,13,13,14,14,15,15,16,16,17,17,18,18,19,19,20,20,21,21,22,22,23,23,24,24,25,25,26,26,27,27,28,28,29,29,30,30,31,31,32,32,33,33,34,34,35,35,39,39,40,40,41,41,42,42,43,43,44,44,45,45,46,46,47,47,48,48,49,49,50,50,51,51,52,52,53,53,54,54,55,55,56,56,57,57,58,58,59,59,60,60,61,61,62,62,64,64,65,65,66,66,67,67,68,68,69,69,70,70,74,74,75,75,76,76,77,77,78,78,79,79,80,80,81,81,82,82,83,83,84,84,85,85,86,86,87,87,88,88,91,91,92,92,93,93,94,94,95,95,96,96,97,97,98,98,99,99,100,100,101,101,102,102,103,103,104,104,105,105,108,108,109,109,110,110,112,112,113,113,115,115,116,116,119,119,120,120,121,121,122,122,123,123,124,124,125,125,126,126,127,127,128,128,130,130,132,132,137,137,138,138,139,139,141,141,142,142,143,143,144,144,145,145,147,147,148,148,149,149,150,150,151,151,152,152,153,153,155,155,156,156,157,157,158,158,159,159,160,160,161,161,163,163,164,164,165,165,170,170,171,171,172,172,173,173,175,175,176,176,177,177,178,178,179,179,180,180,185,185,187,187,188,188,189,189,190,190,191,191,192,192,197,197,198,198,199,199,201,201,202,202,203,203,206,206,207,207,208,208,210,210,213,213,214,214,223,223,224,224,229,229,230,230,231,231,232,232,233,233,234,234,236,236,238,238,241,241,244,244,245,245,253,253,254,254,255,255,256,256,257,257,258,258,259,259,260,260,263,263,264,264,265,265,269,269,272,272,273,273,274,274,275,275,276,276,278,278,279,279,284,284,286,286,287,287,288,288,301,301,302,302,305,305,306,306,310,310,311,311,312,312,313,313,314,314,315,315,316,316,317,317,318,318,319,319,320,320,322,322,323,323,324,324,325,325,326,326,330,330,331,331,332,332,333,333,334,334,338,338,340,340,341,341,342,342,343,343,344,344,345,345,346,346,349,349,350,350,351,351,353,353,356,356,357,357,367,367,368,368,369,369,370,370,371,371,372,372,373,373,374,374,377,377,378,378,379,379,380,380,381,381,387,387,388,388,389,389,390,390,391,391,393,393,394,394,396,396,397,397,398,398,400,400,409,409,410,410,411,411,412,412,413,413,414,414,415,415,416,416,422,422,425,425,426,426,427,427,428,428,432,432,435,435,437,437,438,438,439,439,440,440,441,441,442,442,445,445,446,446,447,447,448,448,451,451,452,452,455,455,456,456,458,458,461,461,462,462],"right_children":[2,4,6,8,10,12,14,16,18,20,22,24,26,28,30,32,34,36,38,40,42,44,46,48,50,52,54,56,58,60,62,64,66,68,70,72,-1,-1,-1,74,76,78,80,82,84,86,88,90,92,94,96,98,100,102,104,106,108,110,112,114,116,118,120,-1,122,124,126,128,130,132,134,-1,-1,-1,136,138,140,142,144,146,148,150,152,154,156,158,160,162,164,-1,-1,166,168,170,172,174,176,178,180,182,184,186,188,190,192,194,-1,-1,196,198,200,-1,202,204,-1,206,208,-1,-1,210,212,214,216,218,220,222,224,226,228,-1,230,-1,232,-1,-1,-1,-1,234,236,238,-1,240,242,244,246,248,-1,250,252,254,256,258,260,262,-1,264,266,268,270,272,274,276,-1,278,280,282,-1,-1,-1,-1,284,286,288,290,-1,292,294,296,298,300,302,-1,-1,-1,-1,304,-1,306,308,310,312,314,316,-1,-1,-1,-1,318,320,322,-1,324,326,328,-1,-1,330,332,334,-1,336,-1,-1,338,340,-1,-1,-1,-1,-1,-1,-1,-1,342,344,-1,-1,-1,-1,346,348,350,352,354,356,-1,358,-1,360,-1,-1,362,-1,-1,364,366,-1,-1,-1,-1,-1,-1,-1,368,370,372,374,376,378,380,382,-1,-1,384,386,388,-1,-1,-1,390,-1,-1,392,394,396,398,400,-1,402,404,-1,-1,-1,-1,406,-1,408,410,412,-1,-1,-1,-1,-1,-1,-1,-1,-1,-1,-1,-1,414,416,-1,-1,418,420,-1,-1,-1,422,424,426,428,430,432,434,436,438,440,442,-1,444,446,448,450,452,-1,-1,-1,454,456,458,460,462,-1,-1,-1,464,-1,466,468,470,472,474,476,478,-1,-1,480,482,484,-1,486,-1,-1,488,490,-1,-1,-1,-1,-1,-1,-1,-1,-1,492,494,496,498,500,502,504,506,-1,-1,508,510,512,514,516,-1,-1,-1,-1,-1,518,520,522,524,526,-1,528,530,-1,532,534,536,-1,538,-1,-1,-1,-1,-1,-1,-1,-1,540,542,544,546,548,550,552,554,-1,-1,-1,-1,-1,556,-1,-1,558,560,562,564,-1,-1,-1,566,-1,-1,568,-1,570,572,574,576,578,580,-1,-1,582,584,586,588,-1,-1,590,592,-1,-1,594,596,-1,598,-1,-1,600,602,-1,-1,-1,-1,-1,-1,-1,-1,-1,-1,-1,-1,-1,-1,-1,-1,-1,-1,-1,-1,-1,-1,-1,-1,-1,-1,-1,-1,-1,-1,-1,-1,-1,-1,-1,-1,-1,-1,-1,-1,-1,-1,-1,-1,-1,-1,-1,-1,-1,-1,-1,-1,-1,-1,-1,-1,-1,-1,-1,-1,-1,-1,-1,-1,-1,-1,-1,-1,-1,-1,-1,-1,-1,-1,-1,-1,-1,-1,-1,-1,-1,-1,-1,-1,-1,-1,-1,-1,-1,-1,-1,-1,-1,-1,-1,-1,-1,-1,-1,-1,-1,-1,-1,-1,-1,-1,-1,-1,-1,-1,-1,-1,-1,-1,-1,-1,-1,-1,-1,-1,-1,-1,-1,-1,-1,-1,-1,-1,-1,-1,-1,-1,-1,-1,-1,-1,-1,-1,-1,-1],"split_conditions":[NaN,NaN,2.8353E-2,1.2535569E1,3.7584E-2,NaN,NaN,1.06763E0,1.064E-2,2.093E-3,NaN,4.30338E-1,1.2477E-2,1.061E-2,6.0606E-2,NaN,1.749E-3,7.52E-4,1.023E-2,2.213E-3,4.24083E-1,6.9478E-2,1.294103E2,1.25566E0,2.748326E0,8.59E-3,4.53E-3,1.535E-3,1.094602E0,5.292E-3,5.86E-3,2.56E-4,7.15E-4,1.50946E-1,3.2753685E1,1.7984186E1,1.390065E-2,-9.0161875E-2,-2.2666112E-2,9.38E-4,3.72739E-1,1.37872E1,4.7E-3,2.4749E-2,5.18E-4,3.765E-3,9.0144E-2,2.72E-4,3.392E-3,3.8926E-2,5.36E-4,4.89E-4,2.139E-3,2.0418E-2,6.63E-4,2.594231E0,7.621E-2,7.64543E-1,9.2979E-2,3.08E-4,5.183244E2,7.28E-4,1.50247E0,-3.4815766E-2,7.99E-4,6.273E-3,2.9E-4,1.678E-3,2.93E-4,5.95E-4,5.756E-2,-2.0866092E-2,-4.810238E-3,-7.9828866E-2,6.939E-3,2.754461E0,5.48542E-1,1.7029E-2,2.977E-3,1.043778E0,1.159E-2,6.83676E-1,NaN,5.034E-3,1.1861859E2,3.1054543E1,1.1084131E1,1.7549E-2,1.43154E-1,3.1842233E-3,3.754581E-2,4.3141E-2,3.28496E-1,5.65088E-1,1.918E-2,1.056E-3,1.74E-3,4.1481E-2,2.1317E-2,3.247E-3,2.247E-3,1.898E-3,5.514237E2,1.139E-3,7.016756E1,2.101658E0,5.1001366E-2,-1.6161859E-2,6.15134E-1,3.108E-3,5.975035E0,-5.7626106E-2,NaN,3.33E-4,-8.647139E-2,2.9513E-2,2.436624E0,-3.9099727E-2,-1.5657902E-3,6.8222E-2,4.83E-4,7.23E-4,2.003E-3,4.9384E-2,3.54E-4,2.452E-3,5.783E-3,2.84E-4,6.95008E0,-3.0065775E-2,1.22659E-1,-3.0065775E-2,8.28E-4,1.972669E-2,-3.0051088E-2,2.9060045E-2,-3.4815766E-2,1.056E-3,2.742E-2,3.3403574E3,2.0838154E-2,4.08E-4,5.6397E-2,2.2371E-2,3.927557E0,2.86E-4,-5.077544E-2,6.100085E0,6.649E-3,3.97E-4,1.061E-3,4.58E-4,3.46E-4,1.284E-3,-6.7039646E-2,1.174E-3,1.1187477E3,3.89342E-1,3.4086E-2,4.351E-3,2.1988E-2,1.2059141E2,-4.2495538E-2,9.976E-3,5.313E-3,9.2124E-2,-2.3099352E-2,3.1842233E-3,2.693422E-2,-3.0051073E-2,9.69402E-1,1.710798E0,NaN,7.52E-4,1.0393365E-2,4.21E-4,1.1444E-2,2.50693E0,1.539E-3,7.384463E2,1.4277E-2,-2.3769045E-2,-6.2049627E-3,2.6695052E-2,4.111926E-3,4.3858E-2,-7.753849E-2,2.1887E-2,4.24342E-1,4.47E-4,2.082E-1,1.48105E-1,1.00351E-1,2.3150647E-2,3.1842233E-3,1.9726707E-2,3.1842233E-3,1.131095E0,4.036E-3,8.327631E5,1.24834385E-2,3.7E-4,5.6633905E2,2.7E-4,-3.4815766E-2,-2.0786846E-2,5.567414E0,4.745E-3,5.3792244E1,-9.224367E-3,5.61E-4,3.0088127E-2,4.1711493E-3,2.69E-4,4.5E-4,1.20302355E-2,3.1842233E-3,4.1711493E-3,2.0838141E-2,-6.31578E-3,-2.0510673E-3,3.1842233E-3,-1.5657902E-3,1.166153E0,1.7093E-1,7.934213E-3,-2.0510673E-3,-1.908846E-2,-5.242178E-2,3.791E-3,2.87E-4,4.212E-3,6.8E-4,7.27125E-1,2.79E-4,3.0693874E-2,8.00961E-1,-6.1162185E-2,2.316868E0,1.0393365E-2,2.9565254E-2,4.53E-4,-3.0026132E-2,-6.974029E-2,3.88E-4,3.630426E0,1.2684226E-2,3.1842233E-3,-1.1032756E-2,3.1842233E-3,-2.5315786E-2,-5.0849367E-2,-1.117447E-1,5.5758564E1,NaN,1.0028256E4,NaN,2.88E-4,2.3754E-2,2.074E-3,5.16048E-1,1.235044E-2,-6.2049627E-3,4.32E-4,8.679E-3,3.4E-4,-2.574923E-2,-4.4315793E-2,1.2684226E-2,2.481E-3,-1.4992571E-2,-5.4939967E-2,2.712E-3,3.90919E-1,7.174631E1,1.4594653E2,5.69E-4,-1.1163759E-2,9.184E-3,2.80569E0,-6.884566E-2,-8.273284E-3,-1.5657902E-3,5.0837804E-2,2.234099E0,2.283783E-2,2.580584E0,1.782484E0,1.1011261E4,-1.4495499E-2,-1.5657902E-3,-2.0565772E-2,1.7434215E-2,-3.9286852E-2,-1.0154331E-1,1.6018678E-2,4.0414017E-3,-2.8335E-2,-6.31578E-3,-3.7235975E-2,-9.301917E-2,2.451E-3,5.109E-3,-1.5657902E-3,-1.6817061E-2,4.35397E-1,1.072861E0,-1.5657902E-3,-3.9074603E-2,-2.0565772E-2,2.1630685E2,2.8571E-2,4.994E-3,1.7204E-2,1.95213E0,2.704E-3,2.8478546E1,3.25E-4,4.17356E-1,2.2283287E1,2.28E-3,-6.9997944E-3,5.9984E-2,1.219E-3,3.91009E-1,2.987E-3,1.4938E-2,1.7434215E-2,-1.5657902E-3,1.0393365E-2,7.909E-3,3.815E-3,2.89E-4,3.37E-4,4.55533E-1,4.6506287E-3,1.7434215E-2,3.1842233E-3,2.42591E-1,1.6155839E-2,6.6396246E2,4.13E-3,1.07954E0,4.543E-3,1.162E-3,1.1429588E1,1.076E-3,-1.1065769E-2,4.1711493E-3,1.8653E-1,NaN,7.6555E-2,2.5948921E-2,3.89342E-1,-8.273284E-3,5.3794302E-2,1.0245E-2,7.27125E-1,1.3504474E-2,3.1842233E-3,-1.4495516E-2,3.1842233E-3,-6.31578E-3,-1.5657902E-3,-1.5815783E-2,-6.31578E-3,-1.5657902E-3,4.751E-3,2.61E-4,2.1594199E2,4.83784E-1,3.4221E-2,1.601E-3,9.871293E2,3.0823E-2,-2.2478104E-3,-2.9663755E-2,9.38E-4,8.46E-4,2.335E-3,1.0584E-2,1.1905865E2,6.8378127E-3,-1.5657902E-3,1.235044E-2,-1.0577265E-2,-3.4471497E-2,5.97979E-1,1.208E-3,2.95E-3,5.741E-3,1.734064E0,-3.6273304E-2,1.235849E0,3.18414E-1,2.0331651E-2,1.7304E-2,4.82E-4,2.6644E-2,2.6111556E-2,8.7322E-2,3.1283617E-3,-2.0510673E-3,-2.0458287E-2,3.1283617E-3,3.1842233E-3,1.3504474E-2,-6.31578E-3,-2.0510673E-3,4.78491E-1,3.53E-4,2.454E-3,1.188E-3,3.76E-4,9.9E-4,2.0693875E3,3.42E-4,-1.5657902E-3,-1.386286E-2,1.8789744E-2,3.986168E-3,-1.125256E-1,1.137E-3,-1.3774988E-1,-3.130274E-2,1.39846E-1,2.024E-3,1.2614436E4,9.182E-3,-1.0649562E-2,-1.07149124E-1,-3.8392592E-2,2.316868E0,-4.5200158E-2,3.1842233E-3,9.282004E0,-8.550688E-2,1.8340837E1,4.9517E-1,5.536409E0,8.65E-4,6.9653E-2,1.7874E-2,-2.4357224E-2,-8.5361205E-2,1.37806E-1,4.105E-3,4.2085E-2,2.55E-4,1.846058E-2,-1.1199776E-2,4.9583E-2,5.564E-2,3.1842233E-3,-2.2868514E-3,2.98E-4,4.74464E0,-2.3099352E-2,5.94037E-1,-3.0431429E-2,-6.974029E-2,3.377E-3,4.6654E-2,5.3957075E-2,3.0032594E-2,6.911568E-2,1.6155839E-2,3.7208166E-2,9.633669E-3,4.6134595E-2,1.180741E-2,1.2808292E-2,-1.5657902E-3,1.4236367E-2,3.5898536E-2,1.2561172E-2,2.8344482E-2,1.1534286E-2,4.143498E-2,3.6372624E-2,4.7386102E-3,5.2156676E-2,2.1687841E-2,1.4133873E-2,4.933853E-3,1.7434215E-2,3.1842233E-3,2.5417527E-2,9.514586E-3,-4.1599344E-2,-1.1065769E-2,2.6648149E-2,-3.3820786E-2,-1.7986035E-2,3.7075754E-2,-3.2337427E-2,2.33315E-2,-1.2887363E-2,1.3709751E-2,1.2953656E-2,2.9773546E-2,1.7138958E-2,-1.4675575E-2,5.2858986E-2,-1.6099334E-3,2.9444177E-2,9.631777E-3,1.5117271E-3,2.2323525E-2,1.2013984E-2,4.8013486E-2,-1.3009994E-2,1.1000054E-2,6.1974428E-3,-5.809624E-2,2.9754161E-3,-3.8239505E-2,7.934213E-3,-1.4280875E-2,1.1329619E-2,2.4029993E-2,6.0015875E-3,-2.6900029E-2,7.7562826E-3,1.5513698E-2,2.9576642E-3,-1.1906347E-2,1.0511558E-2,3.844897E-3,5.37475E-4,-1.1536861E-2,-2.0510673E-3,8.97342E-3,-1.614126E-2,9.829712E-3,2.497673E-4,-2.9467E-2,-2.8030293E-3,7.848012E-3,-4.987916E-2,-2.4504526E-2,-1.5657902E-3,1.7434215E-2,-1.8752873E-2,-4.6381414E-2,-1.3593829E-2,-6.5503344E-2,-5.6495667E-3,3.1004192E-3,-2.6272107E-2,-6.2049627E-3,-2.4789333E-2,-6.213529E-2,7.983661E-3,-1.5657902E-3,-8.263288E-2,-1.860649E-1,-3.8228717E-2,-8.128496E-2,-3.2120097E-2,-1.16999224E-1,1.4808974E-2,-2.2417944E-2,-3.9542676E-3,-7.473556E-2,-7.744979E-2,-1.3921602E-1,-3.443514E-2,-2.112794E-3,-1.1735662E-2,-7.573536E-2,-1.6733207E-3,-2.8314246E-2,1.8310629E-2,-2.767439E-2,8.67302E-3,3.8271897E-2,-5.1639955E-2,-1.3524986E-2,-1.7944241E-2,2.655754E-3,1.0123356E-2,3.292448E-2,1.9039942E-2,-4.072622E-3,-5.5474367E-2,-1.1065769E-2,3.1842233E-3,2.693422E-2,-1.3161428E-2,-3.8480558E-2,-9.224367E-3,7.2822417E-3,-4.8133865E-2,-3.9154054E-3,-6.31578E-3,-2.0510673E-3,-8.03609E-2,-3.0593503E-2,7.549524E-5,-1.7045228E-2,-1.2357044E-2,-3.8130227E-2],"split_indices":[159,159,45,134,154,159,159,11,57,30,159,131,119,62,68,159,49,2,48,28,102,5,84,100,158,119,148,97,89,5,48,2,106,21,154,3,0,0,0,31,11,11,78,96,76,13,96,53,30,24,68,15,49,5,48,141,14,110,21,66,27,10,100,0,60,5,34,13,53,68,17,0,0,0,6,101,21,51,5,23,11,89,159,0,84,19,9,57,13,0,0,81,0,3,100,2,48,49,67,0,0,17,99,68,142,3,0,0,11,53,34,0,159,2,0,48,21,0,0,6,2,29,2,13,2,2,76,2,11,0,6,0,2,0,0,0,0,37,18,52,0,20,24,39,3,2,0,3,61,115,57,47,12,0,0,0,84,3,17,13,45,19,0,5,17,0,0,0,0,0,3,3,159,2,0,2,89,3,0,99,20,0,0,0,0,0,0,128,3,68,21,49,58,0,0,0,0,156,30,50,0,149,123,2,0,0,9,30,144,0,2,0,0,115,5,0,0,0,0,0,0,0,0,153,104,0,0,0,0,78,2,71,61,3,140,0,3,0,3,0,0,2,0,0,2,3,0,0,0,0,0,0,0,19,159,151,159,0,119,29,25,0,0,0,7,51,0,0,0,15,0,0,43,21,98,84,115,0,6,3,0,0,0,0,3,0,3,102,151,0,0,0,0,0,0,0,0,0,0,0,0,58,47,0,0,9,9,0,0,0,84,5,58,83,9,137,3,10,154,152,47,0,11,150,6,0,30,0,0,0,5,30,61,66,128,0,0,0,65,0,19,54,48,0,35,9,6,0,0,100,159,49,0,3,0,0,11,3,0,0,0,0,0,0,0,0,0,5,54,27,153,102,127,99,5,0,0,60,20,68,20,19,0,0,0,0,0,3,43,68,140,3,0,3,110,0,5,97,5,0,18,0,0,0,0,0,0,0,0,21,2,78,30,0,0,52,0,0,0,0,0,0,69,0,0,38,115,151,13,0,0,0,3,0,0,9,0,3,147,87,57,0,0,0,0,14,71,0,2,0,0,5,5,0,0,2,3,0,102,0,0,58,14,0,0,0,0,0,0,0,0,0,0,0,0,0,0,0,0,0,0,0,0,0,0,0,0,0,0,0,0,0,0,0,0,0,0,0,0,0,0,0,0,0,0,0,0,0,0,0,0,0,0,0,0,0,0,0,0,0,0,0,0,0,0,0,0,0,0,0,0,0,0,0,0,0,0,0,0,0,0,0,0,0,0,0,0,0,0,0,0,0,0,0,0,0,0,0,0,0,0,0,0,0,0,0,0,0,0,0,0,0,0,0,0,0,0,0,0,0,0,0,0,0,0,0,0,0,0,0,0,0,0,0,0,0,0,0,0,0,0,0,0],"split_type":[1,1,0,0,0,1,1,0,0,0,1,0,0,0,0,1,0,0,0,0,0,0,0,0,0,0,0,0,0,0,0,0,0,0,0,0,0,0,0,0,0,0,0,0,0,0,0,0,0,0,0,0,0,0,0,0,0,0,0,0,0,0,0,0,0,0,0,0,0,0,0,0,0,0,0,0,0,0,0,0,0,0,1,0,0,0,0,0,0,0,0,0,0,0,0,0,0,0,0,0,0,0,0,0,0,0,0,0,0,0,0,0,1,0,0,0,0,0,0,0,0,0,0,0,0,0,0,0,0,0,0,0,0,0,0,0,0,0,0,0,0,0,0,0,0,0,0,0,0,0,0,0,0,0,0,0,0,0,0,0,0,0,0,0,0,0,0,0,0,0,0,0,1,0,0,0,0,0,0,0,0,0,0,0,0,0,0,0,0,0,0,0,0,0,0,0,0,0,0,0,0,0,0,0,0,0,0,0,0,0,0,0,0,0,0,0,0,0,0,0,0,0,0,0,0,0,0,0,0,0,0,0,0,0,0,0,0,0,0,0,0,0,0,0,0,0,0,0,0,0,0,0,0,0,1,0,1,0,0,0,0,0,0,0,0,0,0,0,0,0,0,0,0,0,0,0,0,0,0,0,0,0,0,0,0,0,0,0,0,0,0,0,0,0,0,0,0,0,0,0,0,0,0,0,0,0,0,0,0,0,0,0,0,0,0,0,0,0,0,0,0,0,0,0,0,0,0,0,0,0,0,0,0,0,0,0,0,0,0,0,0,0,0,0,0,0,0,0,0,0,1,0,0,0,0,0,0,0,0,0,0,0,0,0,0,0,0,0,0,0,0,0,0,0,0,0,0,0,0,0,0,0,0,0,0,0,0,0,0,0,0,0,0,0,0,0,0,0,0,0,0,0,0,0,0,0,0,0,0,0,0,0,0,0,0,0,0,0,0,0,0,0,0,0,0,0,0,0,0,0,0,0,0,0,0,0,0,0,0,0,0,0,0,0,0,0,0,0,0,0,0,0,0,0,0,0,0,0,0,0,0,0,0,0,0,0,0,0,0,0,0,0,0,0,0,0,0,0,0,0,0,0,0,0,0,0,0,0,0,0,0,0,0,0,0,0,0,0,0,0,0,0,0,0,0,0,0,0,0,0,0,0,0,0,0,0,0,0,0,0,0,0,0,0,0,0,0,0,0,0,0,0,0,0,0,0,0,0,0,0,0,0,0,0,0,0,0,0,0,0,0,0,0,0,0,0,0,0,0,0,0,0,0,0,0,0,0,0,0,0,0,0,0,0,0,0,0,0,0,0,0,0,0,0,0,0,0,0,0,0,0,0,0,0,0,0,0,0,0,0,0,0,0],"sum_hessian":[2.436E3,1.637E3,7.99E2,5.12E2,1.125E3,4.12E2,3.87E2,4.98E2,1.4E1,9.4E1,1.031E3,1.64E2,2.48E2,2.34E2,1.53E2,3.33E2,1.65E2,7E0,7E0,4.5E1,4.9E1,7.96E2,2.35E2,2E1,1.44E2,6.2E1,1.86E2,2.2E1,2.12E2,1.31E2,2.2E1,1.38E2,1.95E2,3.2E1,1.33E2,4E0,3E0,3E0,4E0,5E0,4E1,2.3E1,2.6E1,7.58E2,3.8E1,1.76E2,5.9E1,1.2E1,8E0,1.12E2,3.2E1,5.2E1,1E1,2.3E1,1.63E2,1.6E1,6E0,1.22E2,9E1,1.9E1,1.12E2,1E1,1.2E1,1E0,1.37E2,8E0,1.87E2,7E0,2.5E1,1.29E2,4E0,2E0,2E0,2E0,3E0,3.2E1,8E0,1.3E1,1E1,1E1,1.6E1,5.93E2,1.65E2,6E0,3.2E1,1.38E2,3.8E1,4.7E1,1.2E1,1E0,1.1E1,6E0,2E0,7E0,1.05E2,5E0,2.7E1,7E0,4.5E1,3E0,7E0,9E0,1.4E1,1.04E2,5.9E1,4E0,1.2E1,3E0,3E0,1.02E2,2E1,4E0,8.6E1,3E0,1.6E1,9E0,1.03E2,9E0,1E0,7E0,5E0,1.34E2,3E0,5E0,3E0,2E0,1.85E2,3E0,4E0,1E0,2.4E1,1E0,1.28E2,2E0,2E0,2E0,1E0,2.2E1,1E1,5E0,3E0,7E0,6E0,7E0,3E0,3E0,7E0,2E0,1.4E1,4.06E2,1.87E2,7.1E1,9.4E1,2E0,4E0,9E0,2.3E1,2E0,1.36E2,1.4E1,2.4E1,4.5E1,2E0,4E0,8E0,3E0,3E0,1E0,1E0,2E0,5E0,5E0,1E2,3E0,2E0,2E0,2.5E1,5E0,2E0,1.1E1,3.4E1,2E0,1E0,5E0,2E0,3E0,6E0,9E0,5E0,3E1,7.4E1,3.2E1,2.7E1,3E0,1E0,2E0,1E0,6.3E1,3.9E1,1.8E1,2E0,5.8E1,2.8E1,2E0,1E0,3E0,6E0,5.4E1,4.9E1,3E0,4E0,3E0,2E0,9.8E1,3.6E1,2E0,1E0,2E0,3E0,1E0,2E0,1E0,1E0,1.45E2,4E1,1E0,2E0,2E0,2E0,2.1E1,3E0,1.18E2,1E1,4E0,1.8E1,4E0,6E0,2E0,3E0,2E0,5E0,2E0,4E0,5E0,2E0,2E0,1E0,1E0,2E0,1E0,1E0,3E0,1.1E1,6.4E1,3.42E2,7.7E1,1.1E2,3E0,6.8E1,8.3E1,1.1E1,1E0,1E0,2E0,7E0,2E1,3E0,1E0,1E0,1.33E2,3E0,2E0,1.2E1,1.2E1,1.2E1,1.9E1,2.6E1,1E0,3E0,3E0,5E0,2E0,1E0,2E0,3E0,2E0,3E0,3.9E1,6.1E1,2E0,1E0,1E0,1E0,3E0,2.2E1,3E0,2E0,1E0,1E0,4E0,7E0,1.2E1,2.2E1,1E0,2E0,4E0,5E0,1E0,4E0,1E0,2.9E1,1.5E1,5.9E1,2.7E1,5E0,1.9E1,8E0,1E1,5.3E1,2.6E1,1.3E1,2E0,1.6E1,5.2E1,6E0,6E0,2.2E1,1E0,1E0,2E0,4E0,2.6E1,2.8E1,1E1,3.9E1,3E0,1E0,1E0,9.7E1,1E0,3.5E1,6E1,8.5E1,3E0,3.7E1,1.3E1,8E0,1E0,2E0,9.2E1,2.6E1,8E0,2E0,2E0,2E0,1.2E1,6E0,4E0,2E0,1E0,2E0,1E0,1E0,1E0,1E0,1E0,1E0,8E0,5.6E1,2.03E2,1.39E2,6.1E1,1.6E1,4.1E1,6.9E1,1E0,2E0,6E1,8E0,7.6E1,7E0,9E0,2E0,1E0,1E0,2E0,5E0,3E0,1.7E1,6.4E1,6.9E1,1E1,2E0,4E0,8E0,7E0,5E0,9E0,1E1,2E0,2.4E1,1E0,2E0,2E0,1E0,1E0,2E0,1E0,2E0,3.7E1,2E0,3.6E1,2.5E1,2E0,1E1,2E1,2E0,1E0,3E0,3E0,2E0,1.3E1,1.6E1,1.4E1,1E0,3.9E1,2E1,1.4E1,1.3E1,1E0,4E0,4E0,1.5E1,7E0,1E0,4E0,6E0,1.3E1,4E1,1.3E1,1.3E1,5E0,8E0,2E0,1.4E1,3.2E1,2E1,4E0,2E0,4E0,2E0,1.7E1,5E0,1E0,3E0,2.3E1,3E0,3E0,2.5E1,5E0,5E0,2.1E1,1.8E1,9E1,7E0,3.4E1,1E0,5.8E1,2E0,8.3E1,2E0,2E0,1E0,3E0,3.4E1,7E0,6E0,1E0,7E0,8.6E1,6E0,2.3E1,3E0,4E0,4E0,1E0,1E0,4E0,2E0,3E0,1E0,5E0,3E0,1E0,5.5E1,1E0,2.02E2,2.9E1,1.1E2,1.8E1,4.3E1,8E0,8E0,3.8E1,3E0,6.5E1,4E0,1.3E1,4.7E1,1E0,7E0,8E0,6.8E1,4E0,3E0,1E0,8E0,1E0,2E0,5E0,1.2E1,6.1E1,3E0,3.4E1,3.5E1,6E0,4E0,2E0,2E0,5E0,3E0,2E0,3E0,3E0,6E0,3E0,7E0,1.3E1,1.1E1,5E0,3.2E1,1E0,1E0,1.5E1,2.1E1,3E0,2.2E1,1E0,1E0,9E0,1E0,4E0,1.6E1,1E0,1E0,3E0,1.3E1,2.6E1,1.3E1,3E0,1.7E1,9E0,5E0,5E0,8E0,6E0,9E0,3E0,1E0,5E0,8E0,2.5E1,1.5E1,6E0,7E0,4E0,9E0,4E0,1E0,4E0,4E0,1.1E1,2.1E1,7E0,1.3E1,3E0,1E0,1E0,1E0,6E0,1.1E1,3E0,2E0,2.2E1,1E0,1E0,2E0,2.2E1,3E0,3E0,1.8E1,4E0,1.4E1],"tree_param":{"num_deleted":"0","num_feature":"160","num_nodes":"603","size_leaf_vector":"1"}},{"base_weights":[-2.422143E-3,1.7927217E-1,-3.7443823E-1,3.459043E-1,1.03196196E-1,-5.228457E-1,-2.1550341E-1,3.6479387E-1,-3.0554965E-1,-1.833822E-1,1.2947696E-1,-3.266346E-1,-6.5207225E-1,-1.0248013E-1,-3.865746E-1,4.0415996E-1,2.578254E-1,-1.3391037E-1,-7.440801E-2,1.00307085E-1,-4.407087E-1,1.6643865E-1,4.104307E-3,1.718651E-1,-3.9609936E-1,-4.6098346E-1,-8.3343613E-1,3.0217794E-1,-1.4569448E-1,-4.3436924E-1,-9.54674E-2,4.8611346E-1,3.4930244E-1,1.8366158E-2,3.0597624E-1,2.7710984E-2,-3.0015025E-1,-3.4717107E-1,1.6334517E-1,-1.4992976E-1,-6.828563E-1,1.7832546E-1,-6.916457E-2,4.2643495E-2,-1.096547E-1,3.1946114E-1,-6.042528E-2,-3.0387834E-1,-6.909487E-1,-7.5345665E-1,-2.5713694E-1,-6.8856543E-1,-1.1764861E0,4.079549E-1,2.1227428E-3,-6.419018E-1,-1.15495555E-1,-3.595641E-1,-5.9163034E-1,-3.2616594E-1,1.07082695E-1,-3.3074975E-2,4.9419525E-1,3.6261848E-1,1.2651412E-1,-3.891689E-1,1.460948E-1,-2.8562475E-2,3.137393E-1,-8.008671E-2,1.2858093E-2,-4.124851E-2,-1.40861515E-2,-7.450695E-2,3.8045526E-2,-5.531354E-2,1.9508557E-1,2.1036752E-2,-3.9138657E-1,-5.601053E-1,-1.24864794E-1,1.9398531E-1,1.0957941E-2,-4.2386574E-1,8.170966E-3,7.698948E-2,-9.3746185E-4,-4.3109894E-2,-3.4692365E-1,3.0250072E-3,3.410412E-1,-1.594397E-1,1.9075012E-1,1.2758172E-1,-3.335746E-1,-2.4101576E-2,-8.0509126E-1,-1.1191535E0,-5.3115356E-1,-1.7860837E-1,-6.4798385E-1,-9.4571584E-1,-5.530319E-1,-1.2819737E0,-2.6606876E-2,4.296708E-1,3.0250072E-3,-1.4949716E-2,1.5321195E-1,1.0850835E-2,-7.199853E-1,-2.5822708E-1,-1.1701689E-2,-3.305264E-1,-9.157614E-2,-3.8226184E-1,-7.9235417E-1,-3.5580754E-1,-1.4874935E-3,-7.5844764E-3,1.4723721E-1,5.049559E-1,1.6612785E-1,3.8933036E-1,3.0316514E-1,2.1539041E-1,3.2933116E-2,-9.865125E-2,-5.0976492E-2,1.9968084E-1,-1.04773045E-1,3.3300552E-1,1.9244373E-2,-1.3252735E-3,-9.794712E-3,2.7122721E-2,-3.3074975E-2,3.2806805E-1,-4.129999E-3,-3.819362E-2,1.5360801E-1,-5.864789E-2,-7.899847E-2,-1.4646463E-1,-6.3551027E-1,2.3665047E-1,1.3782176E-1,-1.4545132E-1,1.22970805E-1,3.8921356E-2,-6.1676484E-2,8.330701E-2,-2.3704255E-1,-2.0033328E-1,8.4772766E-2,-5.095799E-2,1.2116671E-2,-1.9117396E-2,-3.966249E-2,-4.2020608E-2,-4.7776714E-1,1.4112568E-2,3.6691174E-2,-6.535053E-2,-2.1366894E-2,3.0250072E-3,2.5587512E-2,-2.8047657E-1,3.1034723E-1,7.700491E-2,-3.5466272E-1,-1.0890603E-1,9.700489E-3,-1.9833088E-2,-8.62524E-1,-5.7278004E-2,-1.23434745E-1,-6.402093E-2,-6.544577E-1,4.1306358E-2,-3.4469184E-1,-1.0072434E-1,-3.424486E-1,-2.1269476E-1,-1.0192851E0,-1.6160297E-1,-6.437428E-1,-1.3713431E0,-3.1355143E-2,4.7985934E-2,2.2328425E-2,1.841159E-2,3.0250072E-3,-7.507138E-1,-2.0635009E-2,7.2525084E-2,-3.3597434E-1,8.254942E-2,-2.0473726E-1,-4.7358468E-1,-2.534885E-1,-7.720375E-2,-4.674434E-1,-3.6937628E-2,-8.7501265E-2,-2.2574782E-2,-4.407177E-2,5.99398E-2,2.8502274E-2,3.84723E-1,5.350705E-1,2.4633026E-2,6.4444067E-3,3.9300042E-1,9.0729715E-3,9.548664E-3,3.1178728E-1,3.627475E-2,2.7978173E-2,-5.9999945E-3,5.4780688E-2,-1.4357567E-3,-1.3361931E-2,2.2692402E-1,5.985737E-3,-1.591627E-2,2.9197931E-3,-1.8535757E-2,3.3970764E-1,-2.012601E-2,1.262892E-1,-7.721742E-3,3.6842206E-1,-2.2807492E-1,2.2027381E-1,2.769785E-2,2.591787E-2,7.2753667E-3,-1.3512492E-2,3.0250072E-3,-1.9820584E-2,3.0250072E-3,-6.721424E-1,3.935557E-1,1.8600616E-1,2.0779854E-1,1.0162547E-1,7.357784E-2,-2.9150417E-1,3.3221567E-1,6.681675E-2,1.1732913E-2,-5.894709E-3,-1.2862709E-1,1.533186E-1,3.780969E-2,-3.3496156E-1,-4.21E-2,1.2050009E-2,3.690678E-2,1.1632219E-1,-1.4153814E-1,3.679441E-2,-1.0549863E-1,4.5576748E-2,-1.0605574E-2,5.021095E-4,-1.2834835E-1,-6.310852E-2,-7.721742E-3,-1.4874935E-3,-3.3535745E-2,-8.535743E-3,4.74486E-2,1.09656334E-1,2.131532E-2,-4.435754E-2,-2.4360496E-1,-4.2059252E-1,-1.3529141E-2,-1.4874935E-3,-1.9537473E-2,1.656251E-2,-3.6340322E-2,-9.097723E-1,8.937731E-2,-2.397635E-1,-7.580997E-1,-2.6484373E-1,1.1589728E-1,-2.515099E-1,-1.2452468E-1,-4.9602434E-1,-4.004908E-3,-3.7992723E-2,-1.4874935E-3,-2.736764E-2,-1.1462632E0,-5.744288E-1,1.7932573E-2,-4.5244637E-1,-1.5627527E-1,-6.8273395E-1,-1.2582064E-2,-1.4113325E0,-2.1792984E-2,-7.856976E-2,1.4052653E-1,-1.8361127E-2,-1.9967315E-1,-5.065101E-1,2.5739387E-1,1.5954042E-2,-5.6456524E-1,-1.2220595E-1,-1.5594108E-1,-5.3087574E-1,-3.9773624E-2,-3.006536E-1,-8.690148E-3,-1.4357567E-3,-8.642069E-3,-5.124851E-1,8.475508E-2,-5.6883576E-3,2.2759444E-1,5.178064E-1,1.3625526E-1,5.413693E-1,3.4709117E-1,4.4065973E-1,2.9197931E-3,-1.4874935E-3,6.295633E-2,3.2246754E-1,-1.4357567E-3,6.8769692E-3,-1.4357567E-3,6.869666E-3,2.5875968E-1,1.1786785E-2,-1.4357567E-3,2.3336173E-3,3.4862915E-1,2.7282238E-2,7.891337E-3,1.835153E-2,4.4061133E-1,1.870144E-1,7.575548E-2,-3.9261603E-1,-1.5146876E-2,2.8567523E-1,-5.7450056E-2,1.0280633E-1,-5.2229404E-3,-7.036804E-2,5.466243E-1,2.7229443E-1,-6.864687E-2,2.0747596E-1,1.3092475E-1,2.9853782E-1,-4.2472742E-2,1.4228022E-1,-8.397541E-2,1.628514E-1,-3.63223E-1,3.2387614E-2,3.571041E-2,7.899833E-3,-1.04171515E-1,1.0233945E-1,1.1732913E-2,-1.8917465E-1,-6.227863E-2,1.9502862E-1,-1.4874935E-3,7.158947E-3,-3.6284067E-2,-9.778309E-3,8.8828266E-2,-1.9456124E-2,-6.7287856E-3,1.3064978E-1,-2.5630552E-1,-3.934172E-2,9.402836E-2,-2.3205085E-2,4.048068E-2,-1.7095266E-1,2.4370782E-2,1.9977951E-2,2.9719353E-3,-1.9143423E-3,-1.9094404E-2,2.9719353E-3,3.0250072E-3,1.2604172E-2,-5.9999945E-3,-1.9143423E-3,-2.643605E-1,1.0050011E-1,-7.714131E-2,-3.7628523E-1,-2.5956823E-2,-9.2675644E-1,1.6799927E-2,-1.9037089E-3,-5.3670886E-3,-2.8390408E-2,-9.521834E-1,-5.127418E-1,-6.8660416E-3,-3.29585E-2,-1.2238445E-1,1.7250314E-1,-7.0058345E-3,-3.247211E-2,-1.9228335E-1,6.300106E-2,-1.8063676E-1,-6.408155E-1,-1.2898104E-1,-5.9635162E-2,-2.188735E-2,-6.5646835E-2,-9.85982E-2,1.3087682E-1,-9.335947E-3,-5.188782E-2,-1.7531956E-2,-4.004908E-3,-7.1290714E-1,-1.2615998E-2,-2.7571965E-2,-1.4431804E0,5.2319407E-2,2.2125946E-1,-7.542237E-2,-1.3432516E-1,9.514634E-3,-5.528836E-1,-4.238057E-2,3.0695724E-1,1.17758475E-1,-1.0906449E-1,-1.8483495E-2,-6.794904E-2,-3.7484688E-1,-2.6366977E-2,3.9100964E-2,-2.6323736E-2,-3.7946265E-2,-6.4145225E-1,-2.1766901E-1,4.3710284E-2,-2.2984675E-1,-4.6125314E-1,-5.538948E-1,-1.6221445E-2,1.5221024E-2,4.814418E-3,3.091439E-2,4.0154695E-3,1.2719154E-2,5.35368E-2,2.7191401E-3,1.771915E-2,1.45621775E-2,5.476399E-2,3.5375126E-2,1.4043689E-2,4.6416447E-2,2.6731763E-2,-1.4874935E-3,9.38584E-3,3.341102E-2,1.1826249E-2,2.7121386E-2,7.3336125E-3,1.1139269E-2,3.5717558E-2,-8.690262E-3,9.43114E-3,2.8369667E-3,-1.653266E-3,3.0250072E-3,4.6776216E-2,2.3384143E-2,8.172703E-3,1.3531971E-2,-5.146861E-3,-1.0512471E-2,-4.2908937E-2,3.6498394E-2,1.6509322E-2,-1.9833248E-3,-8.515025E-3,3.0250072E-3,1.1690839E-2,8.70053E-3,5.679636E-2,1.263491E-2,3.2386523E-2,-3.0381108E-2,1.5370831E-2,2.305769E-2,8.376724E-3,1.642823E-2,-9.392554E-3,1.9001485E-3,3.2470793E-2,5.3023705E-3,-2.1887405E-2,1.5649082E-2,-1.4195365E-2,-1.09206205E-2,8.473873E-4,2.3994988E-2,9.716026E-3,-4.1227076E-2,-4.5957565E-3,-7.321143E-3,9.199111E-3,-1.7531948E-2,1.2578416E-2,-2.6527762E-3,1.4876935E-2,-2.0652676E-2,-5.1207067E-3,7.537508E-3,-1.3328822E-2,1.982713E-3,2.0473951E-2,1.1404765E-2,6.771883E-4,4.066396E-3,-9.745444E-3,-4.9741077E-3,6.7201294E-3,-3.1328203E-5,1.3589457E-2,-2.2984266E-3,-3.0888975E-2,-5.4153684E-3,2.4765015E-3,1.0936066E-2,-1.0596959E-2,-8.866127E-3,8.935191E-3,-1.0549466E-2,1.1996975E-2,6.415844E-4,-2.702036E-2,-2.5427649E-3,7.128632E-3,-3.0246569E-2,-8.36578E-3,-1.4874935E-3,1.656251E-2,-5.6561134E-3,-4.127908E-2,-2.5956823E-2,-9.452847E-2,-3.4982525E-2,-1.0590448E-1,-1.430397E-2,-5.3540803E-2,-1.6595913E-2,2.5957108E-3,1.1205554E-2,2.8479705E-2,-4.2122365E-3,-2.6209855E-2,1.0878754E-2,-6.0072425E-3,2.8983594E-3,-2.1472303E-2,-2.5904631E-2,-7.213847E-2,5.3977966E-4,-1.25946645E-2,3.8033486E-3,1.8009456E-2,-2.9312631E-2,-7.714745E-2,-4.917407E-3,3.0250072E-3,-4.9961757E-2,-1.4986807E-1,7.5214948E-3,-1.0911465E-3,2.5156379E-2,1.971674E-3,-2.4731994E-2,6.897484E-3,-2.767728E-2,-6.69106E-2,-4.837354E-3,-1.2200832E-3,2.7870496E-3,3.3815157E-2,2.0895092E-2,-1.1287923E-2,4.7210357E-3,-2.5754903E-2,-3.958532E-2,-1.0339833E-2,-3.2290246E-2,8.427068E-3,-1.410222E-3,7.2753667E-3,-9.4852215E-3,-6.790979E-2,-2.502254E-2,-5.9999945E-3,1.5891917E-2,-1.1909282E-3,-1.2485332E-2,-2.7714124E-2,-5.6228716E-2,-6.809628E-3,-2.6710832E-2,-6.1321992E-2],"categories":[0,1,2,4,6,7,9,10,17,19,23,28,29,32,36,39,0,1,2,3,4,5,6,7,9,10,11,12,13,14,15,17,19,20,22,23,24,25,26,28,29,30,32,33,34,36,37,39,42,45,46,0,1,10,17,19,23,29,36,39,10,17,23,29,32,36,0,1,2,4,6,7,8,9,10,14,16,17,18,19,21,23,25,26,27,28,29,31,32,35,36,37,38,39,40,41,43,44,0,1,2,3,4,5,6,7,9,10,11,12,13,14,15,16,17,18,19,20,21,22,23,24,25,26,27,28,29,30,31,32,33,34,36,37,38,39,42,45,46,31,35,38,43,0,1,2,3,4,6,7,8,9,10,11,14,16,17,18,19,21,22,23,24,25,26,27,28,29,30,31,32,35,36,37,38,39,40,41,43,44,45,46,2,9,17,23,29,0,1,2,3,4,6,7,8,9,10,11,12,13,14,15,16,17,18,19,20,21,22,23,24,25,26,27,28,29,30,31,32,33,34,35,36,37,38,39,40,41,43,44,45,46],"categories_nodes":[0,1,5,6,10,15,17,81,170,185,243],"categories_segments":[0,16,51,60,66,98,139,143,182,184,187],"categories_sizes":[16,35,9,6,32,41,4,39,2,3,45],"default_left":[1,1,1,0,1,1,1,0,0,1,1,0,0,0,0,1,1,1,0,0,0,0,0,0,0,0,1,0,0,1,1,0,0,0,0,0,0,0,0,1,1,1,0,1,0,0,1,0,0,1,0,0,1,1,0,0,1,1,0,0,0,0,1,0,0,0,0,0,1,0,0,0,0,0,0,0,0,0,0,0,0,1,0,0,0,0,0,0,0,0,0,0,0,0,0,0,0,0,0,1,1,0,0,1,0,0,0,0,0,0,1,0,1,0,0,0,0,0,0,0,0,0,0,0,0,0,0,0,0,0,1,0,0,0,0,0,0,0,0,0,1,0,0,0,0,1,1,0,0,0,0,0,0,0,0,0,0,0,0,0,0,0,0,0,0,0,0,0,0,0,1,0,0,0,0,0,0,0,0,1,0,0,0,0,0,1,0,0,0,0,0,0,0,0,0,0,0,1,0,0,0,0,0,0,0,0,0,0,0,1,0,0,0,0,0,0,0,0,0,0,0,0,0,1,0,0,0,0,1,0,0,0,1,0,0,0,0,0,0,0,0,0,0,1,0,0,1,0,0,0,0,0,0,0,0,0,0,0,0,0,0,0,0,0,0,0,0,0,0,0,0,0,0,0,0,0,0,1,0,0,0,0,0,0,0,0,0,0,0,1,1,1,0,0,0,0,0,1,0,1,0,0,1,0,0,0,0,0,0,0,0,1,0,1,0,0,1,0,1,0,0,0,0,0,0,0,0,0,0,1,0,0,0,0,1,0,0,0,0,0,0,0,0,0,0,0,0,0,1,0,0,0,0,0,0,0,0,0,0,1,0,0,0,0,0,0,0,0,0,0,0,1,0,0,0,0,0,0,0,0,0,1,0,0,0,0,0,1,0,0,0,0,0,0,0,0,0,0,0,0,0,0,0,0,0,0,0,0,0,0,0,0,0,0,0,1,0,0,0,0,1,0,0,0,0,0,0,0,0,0,0,0,0,0,0,0,0,0,0,0,0,0,0,1,0,0,0,0,0,1,0,0,0,0,0,0,0,1,0,0,0,0,0,0,0,0,0,0,0,0,0,0,0,0,0,0,0,0,0,0,0,0,0,0,0,0,0,0,0,0,0,0,0,0,0,0,0,0,0,0,0,0,0,0,0,0,0,0,0,0,0,0,0,0,0,0,0,0,0,0,0,0,0,0,0,0,0,0,0,0,0,0,0,0,0,0,0,0,0,0,0,0,0,0,0,0,0,0,0,0,0,0,0,0,0,0,0,0,0,0,0,0,0,0,0,0,0,0,0,0,0,0,0,0,0,0,0,0,0,0,0,0,0,0,0,0,0,0,0,0,0,0,0,0,0,0,0,0,0,0,0,0,0,0,0,0,0,0,0,0,0,0,0,0,0,0,0,0,0,0,0,0,0,0,0],"id":2,"left_children":[1,3,5,7,9,11,13,15,17,19,21,23,25,27,29,31,33,35,-1,37,39,41,43,45,47,49,51,53,55,57,59,61,63,65,67,69,71,73,75,77,79,81,83,85,87,89,91,93,95,97,99,101,103,105,107,109,111,113,115,117,119,-1,121,123,125,127,129,-1,131,133,-1,-1,-1,-1,135,-1,137,139,141,143,-1,145,147,149,151,153,155,157,159,-1,161,163,165,167,169,171,173,175,177,179,181,183,185,187,-1,189,-1,-1,191,-1,193,195,197,199,-1,201,203,205,-1,-1,207,209,211,213,215,217,219,221,-1,223,225,227,229,-1,-1,-1,-1,231,233,-1,235,-1,237,239,241,243,245,247,249,251,-1,253,255,257,259,-1,261,263,-1,265,267,-1,-1,269,-1,-1,-1,271,273,275,277,279,-1,281,283,-1,-1,285,287,289,291,-1,293,295,297,299,301,303,-1,-1,-1,-1,-1,305,-1,307,309,311,313,315,317,319,321,-1,-1,-1,-1,323,-1,325,327,-1,-1,329,-1,331,333,335,-1,-1,337,-1,-1,339,341,-1,-1,-1,343,-1,345,-1,347,349,351,-1,353,-1,-1,-1,-1,-1,355,357,359,361,363,365,367,369,371,-1,-1,373,375,377,379,-1,-1,381,383,385,387,389,391,-1,393,395,-1,-1,-1,-1,-1,-1,397,-1,399,401,403,-1,-1,-1,-1,-1,405,407,409,411,413,415,417,419,421,-1,-1,-1,-1,423,425,427,429,431,433,-1,435,-1,-1,437,-1,439,441,443,445,447,449,451,453,455,457,-1,-1,-1,459,461,-1,463,465,467,469,471,473,-1,-1,475,477,-1,-1,-1,-1,479,-1,-1,-1,481,483,485,-1,487,489,491,493,-1,495,497,499,-1,-1,501,503,505,507,509,511,513,515,517,519,521,523,-1,-1,525,527,-1,529,531,533,-1,-1,-1,-1,535,537,539,541,543,545,547,549,551,553,-1,555,-1,-1,-1,-1,-1,-1,-1,-1,557,559,-1,561,-1,563,-1,-1,-1,-1,565,567,-1,-1,569,571,-1,-1,573,575,577,579,-1,-1,-1,-1,581,583,-1,-1,-1,-1,585,587,-1,589,591,593,-1,595,-1,597,599,601,603,605,-1,-1,607,609,611,-1,-1,613,615,617,619,621,623,-1,-1,-1,-1,-1,-1,-1,-1,-1,-1,-1,-1,-1,-1,-1,-1,-1,-1,-1,-1,-1,-1,-1,-1,-1,-1,-1,-1,-1,-1,-1,-1,-1,-1,-1,-1,-1,-1,-1,-1,-1,-1,-1,-1,-1,-1,-1,-1,-1,-1,-1,-1,-1,-1,-1,-1,-1,-1,-1,-1,-1,-1,-1,-1,-1,-1,-1,-1,-1,-1,-1,-1,-1,-1,-1,-1,-1,-1,-1,-1,-1,-1,-1,-1,-1,-1,-1,-1,-1,-1,-1,-1,-1,-1,-1,-1,-1,-1,-1,-1,-1,-1,-1,-1,-1,-1,-1,-1,-1,-1,-1,-1,-1,-1,-1,-1,-1,-1,-1,-1,-1,-1,-1,-1,-1,-1,-1,-1,-1,-1,-1,-1,-1,-1,-1,-1,-1,-1,-1,-1,-1,-1,-1,-1,-1,-1,-1,-1,-1,-1,-1,-1,-1,-1,-1,-1,-1,-1,-1,-1,-1,-1,-1,-1,-1],"loss_changes":[1.6479178E2,2.072874E1,1.8757004E1,6.424282E0,8.504212E0,1.0258919E1,7.4623737E0,1.9970474E0,1.0293957E0,6.9792795E0,4.7815895E0,5.816353E0,8.210632E0,4.1534777E0,2.1011906E0,1.462162E0,1.5740128E0,3.307324E-1,0E0,1.3542845E0,3.418191E0,2.2443886E0,1.0393425E0,7.3929137E-1,3.7599678E0,7.139473E0,5.451851E0,7.291293E-1,3.117653E0,1.3401108E0,1.1096709E0,1.1074982E0,6.0975647E-1,1.3061491E0,6.131735E-1,8.641245E-2,4.925883E-2,9.4800913E-1,1.0403053E0,9.9897814E-1,1.1758146E0,1.987175E0,1.0732726E0,2.6501125E-1,9.323851E-1,7.08189E-2,2.5424302E-1,1.4903984E0,2.5685253E0,3.470335E0,2.155521E0,2.6485634E0,3.1162643E0,1.2644005E-1,1.8326165E-1,7.812605E-1,2.9895391E0,1.183178E0,1.420147E0,9.620619E-2,1.06656894E-1,0E0,4.1740417E-1,2.1229553E-1,1.0934636E-1,1.5992278E-1,2.7633843E-1,0E0,6.3473225E-1,3.4766626E-3,0E0,0E0,0E0,0E0,4.3369353E-1,0E0,1.0610418E0,8.600079E-1,5.6311417E-1,6.5549374E-1,0E0,1.6303654E0,1.1741962E0,6.4890385E-1,6.2775165E-1,2.306726E-1,5.3072536E-1,3.995395E-1,4.985535E-1,0E0,1.02825165E-2,2.1753296E-2,2.3617454E-2,6.836771E-1,9.4509697E-1,7.218663E-2,1.290781E0,4.2589188E-1,1.85888E0,2.315262E0,9.722686E-1,1.4010353E0,2.0973969E0,2.3395271E0,0E0,5.8586597E-2,0E0,0E0,9.630501E-3,0E0,1.8705845E-2,2.210147E0,2.1637714E0,8.608122E-1,0E0,5.35589E-1,3.7604523E-1,1.0942936E-2,0E0,0E0,1.1522733E-1,2.9019165E-1,3.3057198E-2,1.17767334E-1,1.7170382E-1,7.058546E-2,1.9529732E-2,6.924307E-3,0E0,8.307153E-2,3.3793747E-2,4.3122387E-1,2.142479E-1,0E0,0E0,0E0,0E0,4.2096615E-1,9.0455854E-1,0E0,1.8185961E-1,0E0,5.2417383E-2,5.17129E-2,5.080967E-1,3.0497131E0,7.438178E-1,9.1716367E-1,4.3605042E-1,2.9937148E-2,0E0,4.0550482E-1,2.2797093E-1,2.6312226E-1,1.4219087E-1,0E0,3.0097237E-1,2.6187283E-1,0E0,1.36679895E-2,4.0115118E-1,0E0,0E0,1.2473501E-3,0E0,0E0,0E0,3.4996867E-3,1.4561653E-1,1.085947E-1,6.3706493E-1,7.911734E-3,0E0,1.3002586E-1,3.061161E-1,0E0,0E0,2.3709822E-1,8.4911156E-1,6.407095E-1,1.1376967E0,0E0,7.545245E-2,4.4182584E-2,8.6670685E-1,6.8693095E-1,8.436527E-1,1.2668495E0,0E0,0E0,0E0,0E0,0E0,1.5161037E-2,0E0,3.219022E-1,1.5027151E0,9.2740035E-1,1.0891927E0,4.6315956E-1,5.928352E-1,2.409093E-3,2.4746299E-1,0E0,0E0,0E0,0E0,2.8013207E-2,0E0,5.303979E-1,1.950264E-1,0E0,0E0,1.4899635E-1,0E0,1.8740349E-3,1.5775633E-1,5.923249E-3,0E0,0E0,7.7211987E-3,0E0,0E0,1.8106878E-2,1.3939461E-3,0E0,0E0,0E0,2.8315544E-1,0E0,3.92045E-2,0E0,2.0570469E-1,4.7967613E-1,2.620833E-1,0E0,5.077645E-2,0E0,0E0,0E0,0E0,0E0,3.3471203E-1,1.614481E0,1.6489801E0,6.724124E-1,1.1835566E0,1.8245958E-1,4.06659E-1,2.2206843E-2,2.0502771E-1,0E0,0E0,1.2644003E-1,1.9199741E-1,6.403914E-3,4.1942E-3,0E0,0E0,1.187861E-1,1.0313445E-1,1.18933424E-1,2.356945E-1,1.9801895E-1,1.3207299E-1,0E0,2.8648833E-3,4.525216E-2,0E0,0E0,0E0,0E0,0E0,0E0,1.3916381E-3,0E0,4.290333E-4,3.122518E-1,6.734514E-1,0E0,0E0,0E0,0E0,0E0,2.448082E-2,4.5816977E-2,1.761958E-2,4.6417618E-1,6.627861E-2,3.3133903E-1,5.695629E-2,2.1541797E-1,8.432174E-1,0E0,0E0,0E0,0E0,8.0958366E-1,8.967304E-2,1.3135755E-1,7.0831776E-2,4.0458366E-3,9.2110634E-1,0E0,6.1475754E-1,0E0,0E0,8.812091E-2,0E0,1.3482392E0,8.896332E-1,3.3988118E-1,7.637623E-1,1.7989016E-1,7.8914046E-1,1.3585655E-1,1.7516088E-1,1.877312E-1,4.511881E-1,0E0,0E0,0E0,1.2771964E-1,9.95912E-3,0E0,2.3215622E-1,4.1662693E-2,8.575905E-3,1.8081665E-1,5.3545E-2,1.3667965E-1,0E0,0E0,1.10167265E-2,1.126461E-1,0E0,0E0,0E0,0E0,3.2031536E-3,0E0,0E0,0E0,1.670208E-1,3.8810767E-2,1.969514E-3,0E0,1.5297437E-1,2.0331204E-2,3.7276745E-2,1.7806709E-2,0E0,1.624918E-2,2.479164E-3,5.562864E-4,0E0,0E0,3.5271072E-1,3.7303782E-1,1.3016578E0,7.694349E-1,4.4295627E-1,3.3034277E-1,7.696619E-1,6.563585E-1,1.2588244E-2,1.7203897E-2,1.9890916E-1,3.1911086E-2,0E0,0E0,1.2021769E-1,1.6549543E-1,0E0,3.7885606E-3,4.914555E-2,2.486378E-2,0E0,0E0,0E0,0E0,4.2685315E-2,9.774818E-2,2.560198E-2,3.5759985E-2,5.42455E-2,7.987941E-3,1.1891383E-1,2.5841874E-1,9.388027E-2,2.4818948E-1,0E0,6.0054827E-2,0E0,0E0,0E0,0E0,0E0,0E0,0E0,0E0,2.363534E-1,2.500506E-2,0E0,6.4193916E-1,0E0,3.8957596E-2,0E0,0E0,0E0,0E0,2.7320766E-1,1.55928135E-2,0E0,0E0,3.6627486E-2,9.7056925E-2,0E0,0E0,1.1476204E-1,3.471064E-2,6.338489E-2,2.43752E-1,0E0,0E0,0E0,0E0,1.4900476E-2,1.5998058E-2,0E0,0E0,0E0,0E0,8.5562134E-1,6.188822E-3,0E0,6.6516876E-1,1.2402341E-2,3.779331E-2,0E0,8.6701703E-1,0E0,7.133379E-1,1.3326714E-4,1.5598798E-1,7.1765596E-1,6.386776E-1,0E0,0E0,1.0388613E-2,8.474111E-1,6.3972822E-3,0E0,0E0,2.0308924E-1,5.5190325E-3,5.9563436E-2,1.4416003E-1,5.1782155E-1,5.7380915E-2,0E0,0E0,0E0,0E0,0E0,0E0,0E0,0E0,0E0,0E0,0E0,0E0,0E0,0E0,0E0,0E0,0E0,0E0,0E0,0E0,0E0,0E0,0E0,0E0,0E0,0E0,0E0,0E0,0E0,0E0,0E0,0E0,0E0,0E0,0E0,0E0,0E0,0E0,0E0,0E0,0E0,0E0,0E0,0E0,0E0,0E0,0E0,0E0,0E0,0E0,0E0,0E0,0E0,0E0,0E0,0E0,0E0,0E0,0E0,0E0,0E0,0E0,0E0,0E0,0E0,0E0,0E0,0E0,0E0,0E0,0E0,0E0,0E0,0E0,0E0,0E0,0E0,0E0,0E0,0E0,0E0,0E0,0E0,0E0,0E0,0E0,0E0,0E0,0E0,0E0,0E0,0E0,0E0,0E0,0E0,0E0,0E0,0E0,0E0,0E0,0E0,0E0,0E0,0E0,0E0,0E0,0E0,0E0,0E0,0E0,0E0,0E0,0E0,0E0,0E0,0E0,0E0,0E0,0E0,0E0,0E0,0E0,0E0,0E0,0E0,0E0,0E0,0E0,0E0,0E0,0E0,0E0,0E0,0E0,0E0,0E0,0E0,0E0,0E0,0E0,0E0,0E0,0E0,0E0,0E0,0E0,0E0,0E0,0E0,0E0,0E0,0E0,0E0,0E0,0E0,0E0,0E0,0E0,0E0,0E0,0E0,0E0,0E0,0E0,0E0],"parents":[2147483647,0,0,1,1,2,2,3,3,4,4,5,5,6,6,7,7,8,8,9,9,10,10,11,11,12,12,13,13,14,14,15,15,16,16,17,17,19,19,20,20,21,21,22,22,23,23,24,24,25,25,26,26,27,27,28,28,29,29,30,30,31,31,32,32,33,33,34,34,35,35,36,36,37,37,38,38,39,39,40,40,41,41,42,42,43,43,44,44,45,45,46,46,47,47,48,48,49,49,50,50,51,51,52,52,53,53,54,54,55,55,56,56,57,57,58,58,59,59,60,60,62,62,63,63,64,64,65,65,66,66,68,68,69,69,74,74,76,76,77,77,78,78,79,79,81,81,82,82,83,83,84,84,85,85,86,86,87,87,88,88,90,90,91,91,92,92,93,93,94,94,95,95,96,96,97,97,98,98,99,99,100,100,101,101,102,102,103,103,105,105,108,108,110,110,111,111,112,112,113,113,115,115,116,116,117,117,120,120,121,121,122,122,123,123,124,124,125,125,126,126,127,127,129,129,130,130,131,131,132,132,137,137,138,138,140,140,142,142,143,143,144,144,145,145,146,146,147,147,148,148,149,149,151,151,152,152,153,153,154,154,156,156,157,157,159,159,160,160,163,163,167,167,168,168,169,169,170,170,171,171,173,173,174,174,177,177,178,178,179,179,180,180,182,182,183,183,184,184,185,185,186,186,187,187,193,193,195,195,196,196,197,197,198,198,199,199,200,200,201,201,202,202,207,207,209,209,210,210,213,213,215,215,216,216,217,217,220,220,223,223,224,224,228,228,230,230,232,232,233,233,234,234,236,236,242,242,243,243,244,244,245,245,246,246,247,247,248,248,249,249,250,250,253,253,254,254,255,255,256,256,259,259,260,260,261,261,262,262,263,263,264,264,266,266,267,267,274,274,276,276,277,277,278,278,284,284,285,285,286,286,287,287,288,288,289,289,290,290,291,291,292,292,297,297,298,298,299,299,300,300,301,301,302,302,304,304,307,307,309,309,310,310,311,311,312,312,313,313,314,314,315,315,316,316,317,317,318,318,322,322,323,323,325,325,326,326,327,327,328,328,329,329,330,330,333,333,334,334,339,339,343,343,344,344,345,345,347,347,348,348,349,349,350,350,352,352,353,353,354,354,357,357,358,358,359,359,360,360,361,361,362,362,363,363,364,364,365,365,366,366,367,367,368,368,371,371,372,372,374,374,375,375,376,376,381,381,382,382,383,383,384,384,385,385,386,386,387,387,388,388,389,389,390,390,392,392,401,401,402,402,404,404,406,406,411,411,412,412,415,415,416,416,419,419,420,420,421,421,422,422,427,427,428,428,433,433,434,434,436,436,437,437,438,438,440,440,442,442,443,443,444,444,445,445,446,446,449,449,450,450,451,451,454,454,455,455,456,456,457,457,458,458,459,459],"right_children":[2,4,6,8,10,12,14,16,18,20,22,24,26,28,30,32,34,36,-1,38,40,42,44,46,48,50,52,54,56,58,60,62,64,66,68,70,72,74,76,78,80,82,84,86,88,90,92,94,96,98,100,102,104,106,108,110,112,114,116,118,120,-1,122,124,126,128,130,-1,132,134,-1,-1,-1,-1,136,-1,138,140,142,144,-1,146,148,150,152,154,156,158,160,-1,162,164,166,168,170,172,174,176,178,180,182,184,186,188,-1,190,-1,-1,192,-1,194,196,198,200,-1,202,204,206,-1,-1,208,210,212,214,216,218,220,222,-1,224,226,228,230,-1,-1,-1,-1,232,234,-1,236,-1,238,240,242,244,246,248,250,252,-1,254,256,258,260,-1,262,264,-1,266,268,-1,-1,270,-1,-1,-1,272,274,276,278,280,-1,282,284,-1,-1,286,288,290,292,-1,294,296,298,300,302,304,-1,-1,-1,-1,-1,306,-1,308,310,312,314,316,318,320,322,-1,-1,-1,-1,324,-1,326,328,-1,-1,330,-1,332,334,336,-1,-1,338,-1,-1,340,342,-1,-1,-1,344,-1,346,-1,348,350,352,-1,354,-1,-1,-1,-1,-1,356,358,360,362,364,366,368,370,372,-1,-1,374,376,378,380,-1,-1,382,384,386,388,390,392,-1,394,396,-1,-1,-1,-1,-1,-1,398,-1,400,402,404,-1,-1,-1,-1,-1,406,408,410,412,414,416,418,420,422,-1,-1,-1,-1,424,426,428,430,432,434,-1,436,-1,-1,438,-1,440,442,444,446,448,450,452,454,456,458,-1,-1,-1,460,462,-1,464,466,468,470,472,474,-1,-1,476,478,-1,-1,-1,-1,480,-1,-1,-1,482,484,486,-1,488,490,492,494,-1,496,498,500,-1,-1,502,504,506,508,510,512,514,516,518,520,522,524,-1,-1,526,528,-1,530,532,534,-1,-1,-1,-1,536,538,540,542,544,546,548,550,552,554,-1,556,-1,-1,-1,-1,-1,-1,-1,-1,558,560,-1,562,-1,564,-1,-1,-1,-1,566,568,-1,-1,570,572,-1,-1,574,576,578,580,-1,-1,-1,-1,582,584,-1,-1,-1,-1,586,588,-1,590,592,594,-1,596,-1,598,600,602,604,606,-1,-1,608,610,612,-1,-1,614,616,618,620,622,624,-1,-1,-1,-1,-1,-1,-1,-1,-1,-1,-1,-1,-1,-1,-1,-1,-1,-1,-1,-1,-1,-1,-1,-1,-1,-1,-1,-1,-1,-1,-1,-1,-1,-1,-1,-1,-1,-1,-1,-1,-1,-1,-1,-1,-1,-1,-1,-1,-1,-1,-1,-1,-1,-1,-1,-1,-1,-1,-1,-1,-1,-1,-1,-1,-1,-1,-1,-1,-1,-1,-1,-1,-1,-1,-1,-1,-1,-1,-1,-1,-1,-1,-1,-1,-1,-1,-1,-1,-1,-1,-1,-1,-1,-1,-1,-1,-1,-1,-1,-1,-1,-1,-1,-1,-1,-1,-1,-1,-1,-1,-1,-1,-1,-1,-1,-1,-1,-1,-1,-1,-1,-1,-1,-1,-1,-1,-1,-1,-1,-1,-1,-1,-1,-1,-1,-1,-1,-1,-1,-1,-1,-1,-1,-1,-1,-1,-1,-1,-1,-1,-1,-1,-1,-1,-1,-1,-1,-1,-1,-1,-1,-1,-1,-1,-1],"split_conditions":[NaN,NaN,2.8353E-2,1.2535569E1,3.7584E-2,NaN,NaN,1.51857E0,4.3828297E1,2.093E-3,NaN,4.30338E-1,7.384463E2,1.061E-2,6.0606E-2,NaN,1.749E-3,NaN,-7.440801E-2,2.213E-3,4.24083E-1,6.9478E-2,1.294103E2,1.25566E0,2.748326E0,1.4809E-2,1.568E-3,1.535E-3,9.4982E-2,2.86151E-1,5.86E-3,2.56E-4,7.91442E-1,5.020156E3,5.95E-4,6.94E-4,3.43068E-1,9.38E-4,2.84E-4,5.72932E-1,2.961E-3,5.57E-4,5.18E-4,7.407E-3,9.0144E-2,2.72E-4,3.392E-3,3.8926E-2,5.36E-4,4.846E-3,1.34386E-1,4.6486E-2,2.345E-2,2.4083E-2,7.621E-2,6.64E-3,7.57487E-1,6.51E-3,1.69714E0,7.28E-4,5.2019398E1,-3.3074975E-2,6.9625E-2,4.782E-3,8.16E-4,1.585343E0,2.70393E-1,-2.8562475E-2,7.432E-3,2.1586115E1,1.2858093E-2,-4.124851E-2,-1.40861515E-2,-7.450695E-2,6.939E-3,-5.531354E-2,8.11859E-1,4.552E-3,2.239E-3,3.331E-3,-1.24864794E-1,NaN,1.116422E0,5.034E-3,1.22315E-1,3.1054543E1,1.934E-3,1.7549E-2,1.43154E-1,3.0250072E-3,5.62E-4,4.3141E-2,3.28496E-1,5.65088E-1,1.918E-2,1.056E-3,1.74E-3,3.09E-4,8.5484E-2,8.28624E-1,1.86298E-1,6.1863E-2,1.7287624E2,8.029E-3,-2.6606876E-2,4.04E-4,3.0250072E-3,-1.4949716E-2,6.15134E-1,1.0850835E-2,2.452E-3,9.6776E-1,4.5643E-2,1.3295656E1,-9.157614E-2,5.81773E-1,7.7E-4,8.680661E1,-1.4874935E-3,-7.5844764E-3,7.13E-4,5.1163E-2,9.35E-4,1.6034053E3,6.33E-4,8.62372E-1,3.54E-4,1.092426E0,-5.0976492E-2,4.45844E-1,7.1E-4,2.69E-4,2.8792E-2,-1.3252735E-3,-9.794712E-3,2.7122721E-2,-3.3074975E-2,1.1824E-2,7.889E-3,-3.819362E-2,2.76E-4,-5.864789E-2,2.62E-4,7.19E-4,1.119E-3,5.8548E-2,5.147E-3,2.9577E-2,3.8924E-2,1.284E-3,-6.1676484E-2,1.1197249E2,1.067E-3,3.89342E-1,1.501E-3,-5.095799E-2,4.25E-4,1.2059141E2,-3.966249E-2,9.976E-3,5.313E-3,1.4112568E-2,3.6691174E-2,9.2124E-2,-2.1366894E-2,3.0250072E-3,2.5587512E-2,2.84863E-1,9.69402E-1,1.710798E0,NaN,7.52E-4,9.700489E-3,4.21E-4,1.1444E-2,-5.7278004E-2,-1.23434745E-1,2.50693E0,8.330875E0,2.12505E-1,1.2527291E2,-1.0072434E-1,2.759588E0,2.943E-3,9.35412E-1,NaN,4.49E-4,3.2E-4,-3.1355143E-2,4.7985934E-2,2.2328425E-2,1.841159E-2,3.0250072E-3,5.8163E-2,-2.0635009E-2,2.67919E-1,6.325E-3,5.43E-4,1.238E-3,9.0547E-2,3.377E-3,6.853E-3,1.749E-3,-3.6937628E-2,-8.7501265E-2,-2.2574782E-2,-4.407177E-2,3.8482426E1,2.8502274E-2,1.0332E-2,2.66E-4,2.4633026E-2,6.4444067E-3,1.29E-2,9.0729715E-3,8.79E-4,4.13E-4,1.023E-3,2.7978173E-2,-5.9999945E-3,9.15E-4,-1.4357567E-3,-1.3361931E-2,1.6329E-2,1.93644E0,-1.591627E-2,2.9197931E-3,-1.8535757E-2,7.1E-4,-2.012601E-2,3.3413532E1,-7.721742E-3,2.79E-4,3.1099E-2,1.02544E0,2.769785E-2,3.5591E-2,7.2753667E-3,-1.3512492E-2,3.0250072E-3,-1.9820584E-2,3.0250072E-3,2.77E-4,NaN,2.0603859E2,2.4689E-2,3.323E-3,9.6204E-2,1.8106E-2,1.294E-3,9.18E-4,1.1732913E-2,-5.894709E-3,1.174E-3,3.4E-4,4.32E-4,8.921373E1,-4.21E-2,1.2050009E-2,7.41145E-1,1.2095E-2,1.5532075E5,2.0754E-2,1.428502E2,5.69E-4,-1.0605574E-2,9.184E-3,2.80569E0,-6.310852E-2,-7.721742E-3,-1.4874935E-3,-3.3535745E-2,-8.535743E-3,4.74486E-2,2.234099E0,2.131532E-2,2.580584E0,1.782484E0,1.785E-3,-1.3529141E-2,-1.4874935E-3,-1.9537473E-2,1.656251E-2,-3.6340322E-2,3.718E-3,7.2345E-2,3.76E-4,9.2218E-2,8.8989E-2,1.08862E-1,2.0418E-2,1.932E-3,5.16E-4,-4.004908E-3,-3.7992723E-2,-1.4874935E-3,-2.736764E-2,8.8E-4,1.03496E-1,6.53E-4,6.333E-3,1.2011936E3,5.24629E-1,-1.2582064E-2,3.49E-4,-2.1792984E-2,-7.856976E-2,9.64E-4,-1.8361127E-2,2.95E-4,5.559E-3,3.48E-4,5.57E-4,3.13E-4,1.883E-3,5.662016E0,5.85E-4,3.03E-4,5.91E-4,-8.690148E-3,-1.4357567E-3,-8.642069E-3,2.7995E-2,4.601883E0,-5.6883576E-3,1.8622482E4,2.81E-4,1.5482E-2,2.92E-4,1.026E-3,5.947E-3,2.9197931E-3,-1.4874935E-3,1.189651E0,3.11016E-1,-1.4357567E-3,6.8769692E-3,-1.4357567E-3,6.869666E-3,4.2634E-2,1.1786785E-2,-1.4357567E-3,2.3336173E-3,1.60469E0,2.089E-3,1.399E-3,1.835153E-2,2.08E-3,1.0245E-2,5.65088E-1,7.899E-3,-1.5146876E-2,2.452E-3,3.927557E0,4.53E-4,-5.2229404E-3,-7.036804E-2,3.52E-4,6.96701E-1,3.27E-4,5.0198E-2,1.8980894E1,4.71E-4,9.74068E-1,5.36074E-1,6.555E-3,3.84E-4,3.2305E-2,1.35E-3,3.571041E-2,7.899833E-3,8.28E-4,2.44161E-1,1.1732913E-2,1.444634E0,5.97979E-1,7.2762E-2,-1.4874935E-3,7.158947E-3,-3.6284067E-2,-9.778309E-3,5.86E-4,2.039E-3,2.0457E-2,2.57E-4,1.309461E0,2.5303E-2,6.64E-4,7.197E-3,9.7142715E1,2.6644E-2,2.4370782E-2,8.7322E-2,2.9719353E-3,-1.9143423E-3,-1.9094404E-2,2.9719353E-3,3.0250072E-3,1.2604172E-2,-5.9999945E-3,-1.9143423E-3,3.19532E0,3.53E-4,-7.714131E-2,5.783532E0,